{"learner":{"attributes":{"best_iteration":"29","best_score":"0.5874364984659913"},"feature_names":[],"feature_types":[],"gradient_booster":{"model":{"gbtree_model_param":{"num_parallel_tree":"1","num_trees":"80"},"iteration_indptr":[0,1,2,3,4,5,6,7,8,9,10,11,12,13,14,15,16,17,18,19,20,21,22,23,24,25,26,27,28,29,30,31,32,33,34,35,36,37,38,39,40,41,42,43,44,45,46,47,48,49,50,51,52,53,54,55,56,57,58,59,60,61,62,63,64,65,66,67,68,69,70,71,72,73,74,75,76,77,78,79,80],"tree_info":[0,0,0,0,0,0,0,0,0,0,0,0,0,0,0,0,0,0,0,0,0,0,0,0,0,0,0,0,0,0,0,0,0,0,0,0,0,0,0,0,0,0,0,0,0,0,0,0,0,0,0,0,0,0,0,0,0,0,0,0,0,0,0,0,0,0,0,0,0,0,0,0,0,0,0,0,0,0,0,0],"trees":[{"base_weights":[-1.2115086E-9,1.333671E0,-2.8799066E-1,1.8428857E0,8.513984E-1,-1.0825613E0,-1.369194E-1,3.0704137E-2,1.8691449E0,-7.0923604E-2,9.137324E-1,-6.0960966E-1,-1.277363E0,7.7059716E-2,-5.084587E-1,1.4220674E-1,3.169632E-2,7.769706E-1,1.3010254E0,-1.1834711E0,-2.7913538E-1,-1.4877923E0,-7.8537524E-1,-1.5294302E-1,3.655894E-1,-8.9638346E-1,-2.2811085E-1,9.3826663E-1,4.9935812E-1,4.6729475E-2,1.1269303E-1,-1.73458E-2,-9.77718E-2,-4.0590066E-1,1.3925299E-1,4.6239365E-3,-1.1589987E-1,-3.9188573E-1,-1.0041587E0,9.3338944E-2,-2.7728066E-1,2.1129477E-1,6.825649E-1,-6.9325894E-1,-1.3691852E0,-1.4157015E-1,-1.14204E0,1.936492E-2,7.1952015E-2,4.1769132E-2,6.2597417E-3,6.253949E-3,-3.47376E-2,1.4480675E-2,-8.330623E-4,-3.7901882E-2,-5.4102037E-3,-8.0123685E-2,-1.840885E-2,-2.3841247E-2,1.108953E-2,-3.0116035E-2,2.800262E-3,-5.306434E-2,1.7783232E-2,6.722557E-2,2.5054686E-2,-8.289798E-2,-3.5731457E-2,-1.0838828E-1,-1.4298384E-2,-1.4788122E-2,3.355053E-2,-9.799973E-2,-1.195967E-2],"categories":[],"categories_nodes":[],"categories_segments":[],"categories_sizes":[],"default_left":[0,0,0,0,0,0,0,0,0,0,0,0,0,0,0,0,0,0,0,0,0,0,0,0,0,0,0,0,0,0,0,0,0,0,0,0,0,0,0,0,0,0,0,0,0,0,0,0,0,0,0,0,0,0,0,0,0,0,0,0,0,0,0,0,0,0,0,0,0,0,0,0,0,0,0],"id":0,"left_children":[1,3,5,7,9,11,13,-1,15,-1,17,19,21,23,25,-1,-1,27,29,31,33,35,37,39,41,43,45,47,49,-1,-1,-1,-1,51,53,-1,-1,55,57,59,61,63,65,67,69,71,73,-1,-1,-1,-1,-1,-1,-1,-1,-1,-1,-1,-1,-1,-1,-1,-1,-1,-1,-1,-1,-1,-1,-1,-1,-1,-1,-1,-1],"loss_changes":[1.8167209E2,1.9059723E1,4.6546078E1,7.404938E-1,5.9048386E0,4.9334793E0,2.6115723E1,0E0,7.1876526E-1,0E0,1.3196831E0,3.4625807E0,3.2832565E0,1.39257E1,1.2845993E1,0E0,0E0,1.0986919E0,4.302349E-1,4.99362E-1,7.9904246E-1,2.680725E0,8.978195E-1,3.608669E0,4.404187E0,3.8526802E0,5.453858E0,5.3539276E-2,3.1262326E-1,0E0,0E0,0E0,0E0,3.46843E-1,3.451579E-2,0E0,0E0,2.1752524E-1,1.7586803E-1,9.4381964E-1,3.0645113E0,1.6857963E0,1.9356098E0,2.779293E0,9.7831917E-1,2.249457E0,7.621665E-1,0E0,0E0,0E0,0E0,0E0,0E0,0E0,0E0,0E0,0E0,0E0,0E0,0E0,0E0,0E0,0E0,0E0,0E0,0E0,0E0,0E0,0E0,0E0,0E0,0E0,0E0,0E0,0E0],"parents":[2147483647,0,0,1,1,2,2,3,3,4,4,5,5,6,6,8,8,10,10,11,11,12,12,13,13,14,14,17,17,18,18,19,19,20,20,21,21,22,22,23,23,24,24,25,25,26,26,27,27,28,28,33,33,34,34,37,37,38,38,39,39,40,40,41,41,42,42,43,43,44,44,45,45,46,46],"right_children":[2,4,6,8,10,12,14,-1,16,-1,18,20,22,24,26,-1,-1,28,30,32,34,36,38,40,42,44,46,48,50,-1,-1,-1,-1,52,54,-1,-1,56,58,60,62,64,66,68,70,72,74,-1,-1,-1,-1,-1,-1,-1,-1,-1,-1,-1,-1,-1,-1,-1,-1,-1,-1,-1,-1,-1,-1,-1,-1,-1,-1,-1,-1],"split_conditions":[2.9585475E-1,2.4133043E-1,4.659675E-1,3.709061E-1,2.2378284E-1,3.38857E-1,3.902422E-1,3.0704137E-2,3.112005E-1,-7.0923604E-2,1.5960263E-1,3.7072006E-1,4.65701E-1,2.1228653E-1,5.1316476E-1,1.4220674E-1,3.169632E-2,4.810404E-1,3.3220342E-1,1.4333834E-1,2.0985554E-1,1.8051817E-1,2.140431E-1,3.5284477E-1,5.390939E-1,4.2801866E-1,4.8797423E-1,6.718303E-2,3.4660703E-1,4.6729475E-2,1.1269303E-1,-1.73458E-2,-9.77718E-2,2.9688403E-1,1.7732203E-1,4.6239365E-3,-1.1589987E-1,1.521488E-1,2.058017E-1,4.6057105E-1,5.252467E-1,4.2634305E-1,5.590905E-1,2.9823112E-1,2.638439E-1,4.7656167E-1,5.464894E-1,1.936492E-2,7.1952015E-2,4.1769132E-2,6.2597417E-3,6.253949E-3,-3.47376E-2,1.4480675E-2,-8.330623E-4,-3.7901882E-2,-5.4102037E-3,-8.0123685E-2,-1.840885E-2,-2.3841247E-2,1.108953E-2,-3.0116035E-2,2.800262E-3,-5.306434E-2,1.7783232E-2,6.722557E-2,2.5054686E-2,-8.289798E-2,-3.5731457E-2,-1.0838828E-1,-1.4298384E-2,-1.4788122E-2,3.355053E-2,-9.799973E-2,-1.195967E-2],"split_indices":[184,172,260,231,149,190,190,0,135,0,4,438,325,12,272,0,0,264,141,0,76,64,95,194,234,186,169,15,148,0,0,0,0,183,0,0,0,0,8,226,304,212,379,136,64,137,211,0,0,0,0,0,0,0,0,0,0,0,0,0,0,0,0,0,0,0,0,0,0,0,0,0,0,0,0],"split_type":[0,0,0,0,0,0,0,0,0,0,0,0,0,0,0,0,0,0,0,0,0,0,0,0,0,0,0,0,0,0,0,0,0,0,0,0,0,0,0,0,0,0,0,0,0,0,0,0,0,0,0,0,0,0,0,0,0,0,0,0,0,0,0,0,0,0,0,0,0,0,0,0,0,0,0],"sum_hessian":[4.71E2,8.3E1,3.88E2,3.9E1,4.4E1,6.1E1,3.27E2,1E0,3.8E1,1E0,4.3E1,1.9E1,4.2E1,2.08E2,1.19E2,3.7E1,1E0,3.4E1,9E0,6E0,1.3E1,2.8E1,1.4E1,1.16E2,9.2E1,4.9E1,7E1,2E1,1.4E1,3E0,6E0,1E0,5E0,1E1,3E0,1E0,2.7E1,6E0,8E0,3.9E1,7.7E1,6.3E1,2.9E1,3.6E1,1.3E1,6.5E1,5E0,1E0,1.9E1,1.2E1,2E0,1E0,9E0,2E0,1E0,4E0,2E0,7E0,1E0,4E0,3.5E1,5.5E1,2.2E1,1E0,6.2E1,1.7E1,1.2E1,1.1E1,2.5E1,1.2E1,1E0,6E1,5E0,4E0,1E0],"tree_param":{"num_deleted":"0","num_feature":"444","num_nodes":"75","size_leaf_vector":"1"}},{"base_weights":[-5.639874E-4,1.2387938E0,-2.6818737E-1,1.7097845E0,7.926068E-1,-1.0075477E0,-1.2761258E-1,2.9552732E-2,1.7334181E0,-6.826397E-2,8.5199267E-1,-4.988778E-1,-1.1592748E0,7.136125E-2,-4.7309524E-1,1.3182192E-1,3.0507708E-2,7.2267914E-1,1.2193907E0,-7.298848E-1,-9.759952E-2,-1.2397517E0,-2.3531839E-1,-1.4181475E-1,3.387831E-1,-8.3398104E-1,-2.12287E-1,8.722451E-1,4.6510816E-1,4.4100944E-2,1.0544847E-1,-7.132533E-2,-2.3892328E-2,-2.2559721E-2,1.2999712E-1,4.4505387E-3,-1.2720953E0,4.2799194E-3,-2.9735792E-2,8.601973E-2,-2.568348E-1,1.948964E-1,6.344486E-1,-5.4574734E-1,-1.1234947E0,-1.04510054E-1,-8.592753E-1,1.8638736E-2,6.682543E-2,3.887742E-2,5.946755E-3,1.7452597E-3,1.1836206E-2,-1.1311925E-1,-7.230843E-2,1.2833134E-3,-8.0182246E-4,2.2602236E-2,-1.2774959E-3,-2.7897665E-2,2.599374E-3,2.2687856E-2,-2.988713E-3,6.246376E-2,2.332013E-2,-7.6162614E-2,-1.5726449E-2,-4.4796698E-2,-1.09251924E-1,-1.6667306E-2,1.3020513E-2,-9.211975E-2,-3.0642956E-2],"categories":[],"categories_nodes":[],"categories_segments":[],"categories_sizes":[],"default_left":[0,0,0,0,0,0,0,0,0,0,0,0,0,0,0,0,0,0,0,0,0,0,0,0,0,0,0,0,0,0,0,0,0,0,0,0,0,0,0,0,0,0,0,0,0,0,0,0,0,0,0,0,0,0,0,0,0,0,0,0,0,0,0,0,0,0,0,0,0,0,0,0,0],"id":1,"left_children":[1,3,5,7,9,11,13,-1,15,-1,17,19,21,23,25,-1,-1,27,29,31,33,35,37,39,41,43,45,47,49,-1,-1,-1,-1,-1,51,-1,53,55,-1,57,59,61,63,65,67,69,71,-1,-1,-1,-1,-1,-1,-1,-1,-1,-1,-1,-1,-1,-1,-1,-1,-1,-1,-1,-1,-1,-1,-1,-1,-1,-1],"loss_changes":[1.5688573E2,1.629741E1,4.0302307E1,5.608063E-1,5.3259563E0,4.206764E0,2.2581137E1,0E0,5.3752136E-1,0E0,1.2091923E0,1.411933E0,3.203045E0,1.19627E1,1.1117594E1,0E0,0E0,9.42646E-1,3.5134697E-1,6.0655403E-1,3.6283094E-1,1.8822327E0,1.9476381E-1,3.0881405E0,3.8327837E0,3.5592384E0,4.861057E0,2.4302483E-2,2.671137E-1,0E0,0E0,0E0,0E0,0E0,8.20373E-3,0E0,1.6006927E0,7.5920235E-4,0E0,8.928047E-1,2.6306329E0,1.6287346E0,1.666606E0,4.049452E0,3.337862E0,2.0684679E0,1.1612043E0,0E0,0E0,0E0,0E0,0E0,0E0,0E0,0E0,0E0,0E0,0E0,0E0,0E0,0E0,0E0,0E0,0E0,0E0,0E0,0E0,0E0,0E0,0E0,0E0,0E0,0E0],"parents":[2147483647,0,0,1,1,2,2,3,3,4,4,5,5,6,6,8,8,10,10,11,11,12,12,13,13,14,14,17,17,18,18,19,19,20,20,21,21,22,22,23,23,24,24,25,25,26,26,27,27,28,28,34,34,36,36,37,37,39,39,40,40,41,41,42,42,43,43,44,44,45,45,46,46],"right_children":[2,4,6,8,10,12,14,-1,16,-1,18,20,22,24,26,-1,-1,28,30,32,34,36,38,40,42,44,46,48,50,-1,-1,-1,-1,-1,52,-1,54,56,-1,58,60,62,64,66,68,70,72,-1,-1,-1,-1,-1,-1,-1,-1,-1,-1,-1,-1,-1,-1,-1,-1,-1,-1,-1,-1,-1,-1,-1,-1,-1,-1],"split_conditions":[2.9585475E-1,2.4133043E-1,4.659675E-1,3.709061E-1,2.2378284E-1,2.0456646E-1,3.902422E-1,2.9552732E-2,3.112005E-1,-6.826397E-2,1.5960263E-1,1.9997917E-1,4.7037923E-1,2.1228653E-1,5.1316476E-1,1.3182192E-1,3.0507708E-2,4.810404E-1,3.3220342E-1,4.0609774E-1,1.496619E-1,1.8071833E-1,2.3556218E-1,3.5284477E-1,5.390939E-1,4.2023093E-1,4.6721312E-1,6.718303E-2,3.4660703E-1,4.4100944E-2,1.0544847E-1,-7.132533E-2,-2.3892328E-2,-2.2559721E-2,1.5266979E-1,4.4505387E-3,4.353932E-1,2.017443E-1,-2.9735792E-2,3.1669146E-1,5.252467E-1,3.633198E-1,5.590905E-1,4.8808476E-1,2.0203252E-1,5.084373E-1,5.4929024E-1,1.8638736E-2,6.682543E-2,3.887742E-2,5.946755E-3,1.7452597E-3,1.1836206E-2,-1.1311925E-1,-7.230843E-2,1.2833134E-3,-8.0182246E-4,2.2602236E-2,-1.2774959E-3,-2.7897665E-2,2.599374E-3,2.2687856E-2,-2.988713E-3,6.246376E-2,2.332013E-2,-7.6162614E-2,-1.5726449E-2,-4.4796698E-2,-1.09251924E-1,-1.6667306E-2,1.3020513E-2,-9.211975E-2,-3.0642956E-2],"split_indices":[184,172,260,231,149,106,190,0,135,0,4,105,407,12,272,0,0,264,141,416,0,68,121,194,234,194,191,15,148,0,0,0,0,0,0,0,237,0,0,185,304,190,379,246,12,209,354,0,0,0,0,0,0,0,0,0,0,0,0,0,0,0,0,0,0,0,0,0,0,0,0,0,0],"split_type":[0,0,0,0,0,0,0,0,0,0,0,0,0,0,0,0,0,0,0,0,0,0,0,0,0,0,0,0,0,0,0,0,0,0,0,0,0,0,0,0,0,0,0,0,0,0,0,0,0,0,0,0,0,0,0,0,0,0,0,0,0,0,0,0,0,0,0,0,0,0,0,0,0],"sum_hessian":[4.71E2,8.3E1,3.88E2,3.9E1,4.4E1,6.1E1,3.27E2,1E0,3.8E1,1E0,4.3E1,1.5E1,4.6E1,2.08E2,1.19E2,3.7E1,1E0,3.4E1,9E0,9E0,6E0,4.2E1,4E0,1.16E2,9.2E1,4.9E1,7E1,2E1,1.4E1,3E0,6E0,5E0,4E0,3E0,3E0,1E0,4.1E1,2E0,2E0,3.9E1,7.7E1,6.3E1,2.9E1,2.6E1,2.3E1,6.1E1,9E0,1E0,1.9E1,1.2E1,2E0,1E0,2E0,2.1E1,2E1,1E0,1E0,1.2E1,2.7E1,5.5E1,2.2E1,4.3E1,2E1,1.7E1,1.2E1,1E1,1.6E1,1E1,1.3E1,4.3E1,1.8E1,4E0,5E0],"tree_param":{"num_deleted":"0","num_feature":"444","num_nodes":"73","size_leaf_vector":"1"}},{"base_weights":[-9.0687716E-4,1.1506873E0,-2.4957785E-1,1.5863477E0,7.378629E-1,-8.887781E-1,-1.0897288E-1,1.4560978E-1,1.3434598E0,-6.570407E-2,7.9445314E-1,-4.5938516E-1,-1.0513475E0,8.962486E-2,-4.4071597E-1,5.1601645E-2,1.4611493E0,6.7220074E-1,1.1428913E0,-8.974312E-2,-2.7004382E-1,-1.2904283E0,-6.884071E-1,-1.2028054E-1,3.2983932E-1,-7.763512E-1,-1.9814588E-1,1.1200805E-1,2.936367E-2,8.1089646E-1,4.3321335E-1,4.162026E-2,9.866964E-2,-4.4543085E-1,2.7504858E-1,4.283644E-3,-1.005446E-1,-9.7649254E-2,-7.4260044E-1,6.202486E-2,-2.201324E-1,1.9471857E-1,5.981583E-1,-8.122486E-2,-8.692951E-1,-9.673062E-2,-8.071059E-1,3.912437E-2,6.688609E-2,1.265748E-2,3.8552508E-2,5.575568E-3,-3.683489E-2,2.6171682E-2,-7.7175413E-4,-1.222073E-2,1.2351891E-3,-5.8980085E-2,3.360441E-3,-2.2692319E-2,8.4252665E-3,-2.3415381E-2,-3.7915778E-4,6.199941E-2,1.2075015E-2,-5.0011138E-3,5.0382946E-2,4.1430853E-3,-1.4803848E-2,-4.1481536E-2,-8.7027214E-2,-1.722656E-2,9.251603E-3,-8.659256E-2,-2.8727774E-2],"categories":[],"categories_nodes":[],"categories_segments":[],"categories_sizes":[],"default_left":[0,0,0,0,0,0,0,0,0,0,0,0,0,0,0,0,0,0,0,0,0,0,0,0,0,0,0,0,0,0,0,0,0,0,0,0,0,0,0,0,0,0,0,0,0,0,0,0,0,0,0,0,0,0,0,0,0,0,0,0,0,0,0,0,0,0,0,0,0,0,0,0,0,0,0],"id":2,"left_children":[1,3,5,7,9,11,13,-1,15,-1,17,19,21,23,25,-1,27,29,31,-1,33,35,37,39,41,43,45,-1,-1,47,49,-1,-1,51,53,-1,-1,55,57,59,61,63,65,67,69,71,73,-1,-1,-1,-1,-1,-1,-1,-1,-1,-1,-1,-1,-1,-1,-1,-1,-1,-1,-1,-1,-1,-1,-1,-1,-1,-1,-1,-1],"loss_changes":[1.3545293E2,1.3937004E1,3.486442E1,8.418503E-1,4.8059216E0,4.4034576E0,2.1122196E1,0E0,1.0774231E0,0E0,1.1060352E0,2.6080623E0,3.4502563E0,1.0174558E1,9.615976E0,0E0,1.7517471E-1,8.08836E-1,2.8534794E-1,0E0,1.8433537E0,2.0370102E0,6.318188E-1,1.9796352E0,3.2915401E0,3.1597786E0,4.306735E0,0E0,0E0,2.6273727E-2,2.3383808E-1,0E0,0E0,3.690679E-1,1.09033644E-1,0E0,0E0,2.5037223E-2,7.2501373E-1,7.493745E-1,1.3846114E0,1.2306197E0,1.5619888E0,1.2186677E-1,3.4078903E0,1.8425677E0,1.0312347E0,0E0,0E0,0E0,0E0,0E0,0E0,0E0,0E0,0E0,0E0,0E0,0E0,0E0,0E0,0E0,0E0,0E0,0E0,0E0,0E0,0E0,0E0,0E0,0E0,0E0,0E0,0E0,0E0],"parents":[2147483647,0,0,1,1,2,2,3,3,4,4,5,5,6,6,8,8,10,10,11,11,12,12,13,13,14,14,16,16,17,17,18,18,20,20,21,21,22,22,23,23,24,24,25,25,26,26,29,29,30,30,33,33,34,34,37,37,38,38,39,39,40,40,41,41,42,42,43,43,44,44,45,45,46,46],"right_children":[2,4,6,8,10,12,14,-1,16,-1,18,20,22,24,26,-1,28,30,32,-1,34,36,38,40,42,44,46,-1,-1,48,50,-1,-1,52,54,-1,-1,56,58,60,62,64,66,68,70,72,74,-1,-1,-1,-1,-1,-1,-1,-1,-1,-1,-1,-1,-1,-1,-1,-1,-1,-1,-1,-1,-1,-1,-1,-1,-1,-1,-1,-1],"split_conditions":[2.9585475E-1,2.4133043E-1,4.6623802E-1,2.2921368E-1,2.2378284E-1,3.38857E-1,3.902422E-1,1.4560978E-1,2.0393926E-1,-6.570407E-2,1.5960263E-1,3.842324E-1,4.65701E-1,2.1207927E-1,5.1316476E-1,5.1601645E-2,3.112005E-1,4.810404E-1,3.3220342E-1,-8.974312E-2,2.0985554E-1,1.8051817E-1,3.4486115E-1,3.5284477E-1,5.390939E-1,4.3300942E-1,4.6721312E-1,1.1200805E-1,2.936367E-2,2.1171963E-1,4.3372604E-1,4.162026E-2,9.866964E-2,3.3312142E-1,1.7732203E-1,4.283644E-3,-1.005446E-1,1.5060769E-1,2.1619305E-1,4.6057105E-1,5.252467E-1,2.1163835E-1,4.8459697E-1,4.214541E-1,4.0722972E-1,5.263194E-1,5.4929024E-1,3.912437E-2,6.688609E-2,1.265748E-2,3.8552508E-2,5.575568E-3,-3.683489E-2,2.6171682E-2,-7.7175413E-4,-1.222073E-2,1.2351891E-3,-5.8980085E-2,3.360441E-3,-2.2692319E-2,8.4252665E-3,-2.3415381E-2,-3.7915778E-4,6.199941E-2,1.2075015E-2,-5.0011138E-3,5.0382946E-2,4.1430853E-3,-1.4803848E-2,-4.1481536E-2,-8.7027214E-2,-1.722656E-2,9.251603E-3,-8.659256E-2,-2.8727774E-2],"split_indices":[184,172,242,203,149,190,190,0,174,0,4,229,325,13,272,0,135,264,141,0,76,64,187,194,234,430,191,0,0,124,424,0,0,201,0,0,0,0,0,226,304,19,430,178,185,221,354,0,0,0,0,0,0,0,0,0,0,0,0,0,0,0,0,0,0,0,0,0,0,0,0,0,0,0,0],"split_type":[0,0,0,0,0,0,0,0,0,0,0,0,0,0,0,0,0,0,0,0,0,0,0,0,0,0,0,0,0,0,0,0,0,0,0,0,0,0,0,0,0,0,0,0,0,0,0,0,0,0,0,0,0,0,0,0,0,0,0,0,0,0,0,0,0,0,0,0,0,0,0,0,0,0,0],"sum_hessian":[4.71E2,8.3E1,3.88E2,3.9E1,4.4E1,6.9E1,3.19E2,1.3E1,2.6E1,1E0,4.3E1,2E1,4.9E1,2E2,1.19E2,5E0,2.1E1,3.4E1,9E0,3E0,1.7E1,2.8E1,2.1E1,1.07E2,9.3E1,4.9E1,7E1,2E1,1E0,2E1,1.4E1,3E0,6E0,1.3E1,4E0,1E0,2.7E1,2E0,1.9E1,3.8E1,6.9E1,6.3E1,3E1,6E0,4.3E1,6.1E1,9E0,6E0,1.4E1,4E0,1E1,1E0,1.2E1,3E0,1E0,1E0,1E0,1.8E1,1E0,4E0,3.4E1,4.8E1,2.1E1,2E0,6.1E1,3E0,2.7E1,3E0,3E0,2.2E1,2.1E1,3.8E1,2.3E1,4E0,5E0],"tree_param":{"num_deleted":"0","num_feature":"444","num_nodes":"75","size_leaf_vector":"1"}},{"base_weights":[-5.616352E-4,1.0711762E0,-2.3198944E-1,1.4758363E0,6.876744E-1,-8.7119395E-1,-1.1045691E-1,1.3546911E-1,1.2498477E0,-6.324016E-2,7.4163073E-1,-4.2599142E-1,-1.0042162E0,6.1971635E-2,-4.098495E-1,4.837654E-2,1.3579892E0,6.262777E-1,1.0712035E0,-6.312665E-1,-7.188538E-2,-1.0743734E0,-2.0002101E-1,-1.0840087E-1,3.1679264E-1,-7.9341096E-1,-2.2242574E-1,1.0400749E-1,2.8262531E-2,7.551273E-1,4.0413636E-1,3.927912E-2,9.23266E-2,-6.2311217E-2,-1.9916516E-2,-1.8803552E-2,9.368596E-3,4.123007E-3,-1.1025715E0,3.9649433E-3,-2.5299998E-2,-3.4613317E-1,1.4585911E-2,8.554262E-2,4.4368073E-1,-3.6549854E-1,-9.484659E-1,-1.1168053E-1,-9.27083E-1,3.6609232E-2,6.220406E-2,3.396507E-2,4.369167E-3,-1.0380754E-1,-6.5706626E-2,1.1888695E-3,-7.428134E-4,-5.3399634E-3,-3.376968E-2,2.6143277E-2,-3.8607696E-3,3.4652963E-2,-3.2640453E-3,5.828774E-3,3.7922785E-2,-6.00227E-2,-9.873099E-3,-8.97715E-3,-7.823479E-2,-1.1693202E-2,3.0061612E-2,-9.147385E-2,-2.4905318E-2],"categories":[],"categories_nodes":[],"categories_segments":[],"categories_sizes":[],"default_left":[0,0,0,0,0,0,0,0,0,0,0,0,0,0,0,0,0,0,0,0,0,0,0,0,0,0,0,0,0,0,0,0,0,0,0,0,0,0,0,0,0,0,0,0,0,0,0,0,0,0,0,0,0,0,0,0,0,0,0,0,0,0,0,0,0,0,0,0,0,0,0,0,0],"id":3,"left_children":[1,3,5,7,9,11,13,-1,15,-1,17,19,21,23,25,-1,27,29,31,33,35,37,39,41,43,45,47,-1,-1,49,51,-1,-1,-1,-1,-1,-1,-1,53,55,-1,57,59,61,63,65,67,69,71,-1,-1,-1,-1,-1,-1,-1,-1,-1,-1,-1,-1,-1,-1,-1,-1,-1,-1,-1,-1,-1,-1,-1,-1],"loss_changes":[1.1731863E2,1.2020882E1,3.01229E1,7.292938E-1,4.342367E0,3.243969E0,1.6958015E1,0E0,8.900528E-1,0E0,1.0018864E0,1.1176472E0,2.4368477E0,9.107968E0,8.450148E0,0E0,9.8587036E-2,6.9662476E-1,2.3026085E-1,5.091529E-1,2.7767217E-1,1.4299622E0,1.4138642E-1,3.6890278E0,2.4268484E0,2.240984E0,6.295531E0,0E0,0E0,1.1540413E-2,2.2644615E-1,0E0,0E0,0E0,0E0,0E0,0E0,0E0,1.4653931E0,6.515691E-4,0E0,1.1989717E0,1.8713531E0,1.5264571E0,1.1850882E0,1.114832E0,2.0718918E0,1.6945422E0,1.5098877E0,0E0,0E0,0E0,0E0,0E0,0E0,0E0,0E0,0E0,0E0,0E0,0E0,0E0,0E0,0E0,0E0,0E0,0E0,0E0,0E0,0E0,0E0,0E0,0E0],"parents":[2147483647,0,0,1,1,2,2,3,3,4,4,5,5,6,6,8,8,10,10,11,11,12,12,13,13,14,14,16,16,17,17,18,18,19,19,20,20,21,21,22,22,23,23,24,24,25,25,26,26,29,29,30,30,38,38,39,39,41,41,42,42,43,43,44,44,45,45,46,46,47,47,48,48],"right_children":[2,4,6,8,10,12,14,-1,16,-1,18,20,22,24,26,-1,28,30,32,34,36,38,40,42,44,46,48,-1,-1,50,52,-1,-1,-1,-1,-1,-1,-1,54,56,-1,58,60,62,64,66,68,70,72,-1,-1,-1,-1,-1,-1,-1,-1,-1,-1,-1,-1,-1,-1,-1,-1,-1,-1,-1,-1,-1,-1,-1,-1],"split_conditions":[2.9585475E-1,2.4133043E-1,4.659675E-1,2.2921368E-1,2.2378284E-1,2.0456646E-1,3.902422E-1,1.3546911E-1,2.0393926E-1,-6.324016E-2,1.5960263E-1,1.9997917E-1,4.7037923E-1,5.240823E-1,5.0089645E-1,4.837654E-2,3.112005E-1,4.810404E-1,3.3220342E-1,4.0609774E-1,1.496619E-1,1.8071833E-1,2.3556218E-1,2.4997544E-1,3.3001712E-1,4.060306E-1,4.6740732E-1,1.0400749E-1,2.8262531E-2,2.1171963E-1,3.4660703E-1,3.927912E-2,9.23266E-2,-6.2311217E-2,-1.9916516E-2,-1.8803552E-2,9.368596E-3,4.123007E-3,4.4093508E-1,2.017443E-1,-2.5299998E-2,3.4345663E-1,3.3332247E-1,5.313616E-1,2.1189317E-1,4.9417228E-1,4.321185E-1,4.7656167E-1,5.4929024E-1,3.6609232E-2,6.220406E-2,3.396507E-2,4.369167E-3,-1.0380754E-1,-6.5706626E-2,1.1888695E-3,-7.428134E-4,-5.3399634E-3,-3.376968E-2,2.6143277E-2,-3.8607696E-3,3.4652963E-2,-3.2640453E-3,5.828774E-3,3.7922785E-2,-6.00227E-2,-9.873099E-3,-8.97715E-3,-7.823479E-2,-1.1693202E-2,3.0061612E-2,-9.147385E-2,-2.4905318E-2],"split_indices":[184,172,260,203,149,106,190,0,174,0,4,105,407,317,230,0,135,264,141,416,0,68,121,122,114,194,190,0,0,124,148,0,0,0,0,0,0,0,345,0,0,186,180,332,13,267,429,137,354,0,0,0,0,0,0,0,0,0,0,0,0,0,0,0,0,0,0,0,0,0,0,0,0],"split_type":[0,0,0,0,0,0,0,0,0,0,0,0,0,0,0,0,0,0,0,0,0,0,0,0,0,0,0,0,0,0,0,0,0,0,0,0,0,0,0,0,0,0,0,0,0,0,0,0,0,0,0,0,0,0,0,0,0,0,0,0,0,0,0,0,0,0,0,0,0,0,0,0,0],"sum_hessian":[4.71E2,8.3E1,3.88E2,3.9E1,4.4E1,6.1E1,3.27E2,1.3E1,2.6E1,1E0,4.3E1,1.5E1,4.6E1,2.08E2,1.19E2,5E0,2.1E1,3.4E1,9E0,9E0,6E0,4.2E1,4E0,1.25E2,8.3E1,3.8E1,8.1E1,2E1,1E0,2E1,1.4E1,3E0,6E0,5E0,4E0,3E0,3E0,1E0,4.1E1,2E0,2E0,4.2E1,8.3E1,3E1,5.3E1,1.1E1,2.7E1,7.1E1,1E1,6E0,1.4E1,1.2E1,2E0,1.6E1,2.5E1,1E0,1E0,1.2E1,3E1,1.3E1,7E1,7E0,2.3E1,8E0,4.5E1,3E0,8E0,3E0,2.4E1,6.6E1,5E0,6E0,4E0],"tree_param":{"num_deleted":"0","num_feature":"444","num_nodes":"73","size_leaf_vector":"1"}},{"base_weights":[-4.2858897E-4,9.9704784E-1,-2.1582085E-1,1.3730514E0,6.406658E-1,-7.69391E-1,-9.405295E-2,1.1355612E0,1.6583141E0,-6.0868658E-2,6.921165E-1,-3.9114887E-1,-9.1286486E-1,7.7868E-2,-3.8123676E-1,1.2814436E0,5.7737195E-1,3.0753711E-2,1.2856463E-1,5.8322537E-1,1.0040238E0,-7.351029E-2,-1.9490826E-1,-1.119087E0,-5.995328E-1,-1.0596299E-1,2.882497E-1,-6.745338E-1,-1.6932003E-1,2.4695324E-2,9.87037E-2,1.4405032E-2,5.198104E-2,7.0319813E-1,3.7638173E-1,3.706967E-2,1.1518842E0,-3.191179E-1,2.8855258E-1,3.968394E-3,-1.1628338E0,-4.192036E-1,-8.6270833E-1,1.0228219E-1,-1.732393E-1,1.7050038E-1,5.220467E-1,-5.1185256E-1,-1.056296E0,-7.932067E-2,-7.10384E-1,1.5099772E-2,5.3866882E-2,1.0304065E-2,3.3809923E-2,1.0546416E-1,4.5720644E-2,9.982285E-3,-3.041839E-2,2.7097985E-3,2.7048727E-2,-4.1337065E-2,-9.106411E-2,-4.379534E-2,-5.60845E-3,-6.981611E-2,-1.4456104E-2,-2.8516045E-2,1.1706783E-2,-1.9190801E-2,1.0943853E-3,5.804789E-2,1.0391261E-2,8.552088E-2,3.1131253E-2,-7.8566395E-2,-2.8078264E-2,-8.361027E-2,-1.108868E-2,-1.670449E-2,6.865914E-3,-7.590859E-2,-2.5540857E-2],"categories":[],"categories_nodes":[],"categories_segments":[],"categories_sizes":[],"default_left":[0,0,0,0,0,0,0,0,0,0,0,0,0,0,0,0,0,0,0,0,0,0,0,0,0,0,0,0,0,0,0,0,0,0,0,0,0,0,0,0,0,0,0,0,0,0,0,0,0,0,0,0,0,0,0,0,0,0,0,0,0,0,0,0,0,0,0,0,0,0,0,0,0,0,0,0,0,0,0,0,0,0,0],"id":4,"left_children":[1,3,5,7,9,11,13,15,17,-1,19,21,23,25,27,29,31,-1,-1,33,35,-1,37,39,41,43,45,47,49,-1,-1,-1,-1,51,53,-1,55,57,59,-1,61,63,65,67,69,71,73,75,77,79,81,-1,-1,-1,-1,-1,-1,-1,-1,-1,-1,-1,-1,-1,-1,-1,-1,-1,-1,-1,-1,-1,-1,-1,-1,-1,-1,-1,-1,-1,-1,-1,-1],"loss_changes":[1.0162377E2,1.0376411E1,2.614899E1,8.2676697E-1,3.9240704E0,3.4416847E0,1.582902E1,1.2958794E0,4.1316223E-1,0E0,9.088402E-1,2.2362146E0,2.5598679E0,7.804154E0,7.3443336E0,1.9272614E-1,1.7896318E-1,0E0,0E0,6.038761E-1,1.8440151E-1,0E0,1.1129409E0,1.5483932E0,6.8243074E-1,1.5307957E0,2.4987574E0,2.5646095E0,3.4010255E0,0E0,0E0,0E0,0E0,1.3771057E-2,2.0484495E-1,0E0,1.0809803E-1,6.0136425E-1,5.976504E-2,0E0,2.1032715E-1,8.074105E-1,1.8596077E-1,7.6032907E-1,1.2765374E0,1.1267538E0,1.5766621E0,2.3327103E0,5.792904E-1,1.5395887E0,7.712474E-1,0E0,0E0,0E0,0E0,0E0,0E0,0E0,0E0,0E0,0E0,0E0,0E0,0E0,0E0,0E0,0E0,0E0,0E0,0E0,0E0,0E0,0E0,0E0,0E0,0E0,0E0,0E0,0E0,0E0,0E0,0E0,0E0],"parents":[2147483647,0,0,1,1,2,2,3,3,4,4,5,5,6,6,7,7,8,8,10,10,11,11,12,12,13,13,14,14,15,15,16,16,19,19,20,20,22,22,23,23,24,24,25,25,26,26,27,27,28,28,33,33,34,34,36,36,37,37,38,38,40,40,41,41,42,42,43,43,44,44,45,45,46,46,47,47,48,48,49,49,50,50],"right_children":[2,4,6,8,10,12,14,16,18,-1,20,22,24,26,28,30,32,-1,-1,34,36,-1,38,40,42,44,46,48,50,-1,-1,-1,-1,52,54,-1,56,58,60,-1,62,64,66,68,70,72,74,76,78,80,82,-1,-1,-1,-1,-1,-1,-1,-1,-1,-1,-1,-1,-1,-1,-1,-1,-1,-1,-1,-1,-1,-1,-1,-1,-1,-1,-1,-1,-1,-1,-1,-1],"split_conditions":[2.9585475E-1,2.4133043E-1,4.6623802E-1,1.2536186E-1,2.2378284E-1,3.38857E-1,3.902422E-1,2.7177277E-1,3.9908367E-1,-6.0868658E-2,1.5960263E-1,3.8689676E-1,4.65701E-1,2.1207927E-1,5.1316476E-1,3.709061E-1,9.343628E-2,3.0753711E-2,1.2856463E-1,4.810404E-1,3.3220342E-1,-7.351029E-2,4.4114512E-1,1.8051817E-1,4.7049123E-1,3.6734328E-1,5.390939E-1,4.2801866E-1,4.6721312E-1,2.4695324E-2,9.87037E-2,1.4405032E-2,5.198104E-2,6.718303E-2,4.3372604E-1,3.706967E-2,3.4270042E-1,4.138803E-1,1.5582909E-1,3.968394E-3,3.0992448E-1,4.6827573E-1,2.2080685E-1,4.4576988E-1,5.252467E-1,2.1163835E-1,2.0812748E-1,2.0007013E-1,2.638439E-1,4.0078878E-1,5.4929024E-1,1.5099772E-2,5.3866882E-2,1.0304065E-2,3.3809923E-2,1.0546416E-1,4.5720644E-2,9.982285E-3,-3.041839E-2,2.7097985E-3,2.7048727E-2,-4.1337065E-2,-9.106411E-2,-4.379534E-2,-5.60845E-3,-6.981611E-2,-1.4456104E-2,-2.8516045E-2,1.1706783E-2,-1.9190801E-2,1.0943853E-3,5.804789E-2,1.0391261E-2,8.552088E-2,3.1131253E-2,-7.8566395E-2,-2.8078264E-2,-8.361027E-2,-1.108868E-2,-1.670449E-2,6.865914E-3,-7.590859E-2,-2.5540857E-2],"split_indices":[184,172,242,0,149,190,190,148,222,0,4,414,325,13,272,231,0,0,0,264,141,0,229,64,279,199,234,186,191,0,0,0,0,15,424,0,147,370,3,0,165,278,36,219,304,19,4,73,64,135,354,0,0,0,0,0,0,0,0,0,0,0,0,0,0,0,0,0,0,0,0,0,0,0,0,0,0,0,0,0,0,0,0],"split_type":[0,0,0,0,0,0,0,0,0,0,0,0,0,0,0,0,0,0,0,0,0,0,0,0,0,0,0,0,0,0,0,0,0,0,0,0,0,0,0,0,0,0,0,0,0,0,0,0,0,0,0,0,0,0,0,0,0,0,0,0,0,0,0,0,0,0,0,0,0,0,0,0,0,0,0,0,0,0,0,0,0,0,0],"sum_hessian":[4.71E2,8.3E1,3.88E2,3.9E1,4.4E1,6.9E1,3.19E2,2.4E1,1.5E1,1E0,4.3E1,2E1,4.9E1,2E2,1.19E2,1.8E1,6E0,1E0,1.4E1,3.4E1,9E0,4E0,1.6E1,2.8E1,2.1E1,1.07E2,9.3E1,4.9E1,7E1,1E0,1.7E1,2E0,4E0,2E1,1.4E1,3E0,6E0,1.3E1,3E0,1E0,2.7E1,1.4E1,7E0,2.6E1,8.1E1,6.3E1,3E1,3.6E1,1.3E1,6.1E1,9E0,1E0,1.9E1,4E0,1E1,3E0,3E0,2E0,1.1E1,1E0,2E0,3E0,2.4E1,9E0,5E0,6E0,1E0,2E0,2.4E1,5.6E1,2.5E1,2E0,6.1E1,3E0,2.7E1,6E0,3E1,1.2E1,1E0,3.3E1,2.8E1,4E0,5E0],"tree_param":{"num_deleted":"0","num_feature":"444","num_nodes":"83","size_leaf_vector":"1"}},{"base_weights":[-1.8283214E-4,9.292879E-1,-2.008907E-1,1.4181828E0,6.856767E-1,-7.1634805E-1,-8.750662E-2,4.653421E-2,1.1190348E-1,-5.8586087E-2,7.251148E-1,-3.6486924E-1,-8.4964216E-1,7.2775096E-2,-3.552493E-1,6.1870843E-1,1.2995155E0,-7.630697E-2,-1.9958608E-1,-1.0395842E0,-5.60644E-1,-9.833897E-2,2.6860002E-1,-6.919999E-1,-1.9075507E-1,6.3247967E-1,-2.1030973E-3,1.3737763E0,2.9238375E-2,-3.4909466E-1,2.5895515E-1,3.8195793E-3,-1.0803498E0,-3.9105693E-1,-8.085392E-1,5.0884217E-2,-1.8007275E-1,1.5878221E-1,4.8665616E-1,-3.0975768E-1,-8.3110374E-1,-8.744353E-2,-7.8611875E-1,5.4790165E-2,3.7492435E-2,2.996117E-2,1.10218376E-1,4.6408265E-3,-2.8910082E-2,2.4064181E-2,4.257319E-4,-3.9011855E-2,-8.4507495E-2,-1.7504904E-2,-5.747005E-2,-6.5327935E-2,-1.3913999E-2,-2.0073613E-2,7.120126E-3,-4.224575E-2,-1.0150965E-2,5.5145495E-2,9.624486E-3,4.9869914E-2,1.4149794E-2,-5.3173713E-2,-7.3430077E-3,-6.892783E-3,-6.870987E-2,-1.6823426E-2,5.107452E-3,-8.054851E-2,-2.3944553E-2],"categories":[],"categories_nodes":[],"categories_segments":[],"categories_sizes":[],"default_left":[0,0,0,0,0,0,0,0,0,0,0,0,0,0,0,0,0,0,0,0,0,0,0,0,0,0,0,0,0,0,0,0,0,0,0,0,0,0,0,0,0,0,0,0,0,0,0,0,0,0,0,0,0,0,0,0,0,0,0,0,0,0,0,0,0,0,0,0,0,0,0,0,0],"id":5,"left_children":[1,3,5,7,9,11,13,-1,-1,-1,15,17,19,21,23,25,27,-1,29,31,33,35,37,39,41,43,-1,45,-1,47,49,-1,51,53,55,57,59,61,63,65,67,69,71,-1,-1,-1,-1,-1,-1,-1,-1,-1,-1,-1,-1,-1,-1,-1,-1,-1,-1,-1,-1,-1,-1,-1,-1,-1,-1,-1,-1,-1,-1],"loss_changes":[8.823927E1,9.032005E0,2.2672283E1,6.6516876E-1,3.9216518E0,2.9694977E0,1.3758413E1,0E0,0E0,0E0,2.6798153E0,2.0619264E0,2.161808E0,6.7616024E0,6.5152206E0,4.630642E-1,4.8627853E-3,0E0,1.3244051E0,1.3442287E0,6.086912E-1,1.3263931E0,2.1736941E0,1.8162422E0,4.97491E0,2.7182007E-1,0E0,6.630421E-2,0E0,2.3312855E-1,7.65692E-2,0E0,1.4196396E-1,7.084789E-1,1.4991379E-1,5.726418E-1,1.1235201E0,1.0293225E0,1.5214214E0,9.455004E-1,1.6756763E0,1.5267924E0,1.2698054E0,0E0,0E0,0E0,0E0,0E0,0E0,0E0,0E0,0E0,0E0,0E0,0E0,0E0,0E0,0E0,0E0,0E0,0E0,0E0,0E0,0E0,0E0,0E0,0E0,0E0,0E0,0E0,0E0,0E0,0E0],"parents":[2147483647,0,0,1,1,2,2,3,3,4,4,5,5,6,6,10,10,11,11,12,12,13,13,14,14,15,15,16,16,18,18,19,19,20,20,21,21,22,22,23,23,24,24,25,25,27,27,29,29,30,30,32,32,33,33,34,34,35,35,36,36,37,37,38,38,39,39,40,40,41,41,42,42],"right_children":[2,4,6,8,10,12,14,-1,-1,-1,16,18,20,22,24,26,28,-1,30,32,34,36,38,40,42,44,-1,46,-1,48,50,-1,52,54,56,58,60,62,64,66,68,70,72,-1,-1,-1,-1,-1,-1,-1,-1,-1,-1,-1,-1,-1,-1,-1,-1,-1,-1,-1,-1,-1,-1,-1,-1,-1,-1,-1,-1,-1,-1],"split_conditions":[2.9585475E-1,2.3800078E-1,4.6623802E-1,4.2901552E-1,2.2378284E-1,3.38857E-1,3.902422E-1,4.653421E-2,1.1190348E-1,-5.8586087E-2,1.8788706E-1,3.842324E-1,4.65701E-1,2.1207927E-1,5.0089645E-1,3.368393E-1,3.8420346E-1,-7.630697E-2,2.0985554E-1,1.8051817E-1,4.7049123E-1,3.5284477E-1,5.390939E-1,4.060306E-1,4.6721312E-1,4.5486677E-1,-2.1030973E-3,4.5809776E-1,2.9238375E-2,3.3312142E-1,1.7732203E-1,3.8195793E-3,3.0992448E-1,3.6856794E-1,2.2080685E-1,4.6057105E-1,1.6629332E-1,2.1163835E-1,5.590905E-1,4.9417228E-1,4.321185E-1,4.0078878E-1,5.4929024E-1,5.4790165E-2,3.7492435E-2,2.996117E-2,1.10218376E-1,4.6408265E-3,-2.8910082E-2,2.4064181E-2,4.257319E-4,-3.9011855E-2,-8.4507495E-2,-1.7504904E-2,-5.747005E-2,-6.5327935E-2,-1.3913999E-2,-2.0073613E-2,7.120126E-3,-4.224575E-2,-1.0150965E-2,5.5145495E-2,9.624486E-3,4.9869914E-2,1.4149794E-2,-5.3173713E-2,-7.3430077E-3,-6.892783E-3,-6.870987E-2,-1.6823426E-2,5.107452E-3,-8.054851E-2,-2.3944553E-2],"split_indices":[184,167,242,373,149,190,190,0,0,0,10,229,325,13,230,64,103,0,76,64,279,194,234,194,191,225,0,235,0,201,0,0,165,184,36,226,26,19,379,267,429,135,354,0,0,0,0,0,0,0,0,0,0,0,0,0,0,0,0,0,0,0,0,0,0,0,0,0,0,0,0,0,0],"split_type":[0,0,0,0,0,0,0,0,0,0,0,0,0,0,0,0,0,0,0,0,0,0,0,0,0,0,0,0,0,0,0,0,0,0,0,0,0,0,0,0,0,0,0,0,0,0,0,0,0,0,0,0,0,0,0,0,0,0,0,0,0,0,0,0,0,0,0,0,0,0,0,0,0],"sum_hessian":[4.71E2,8.3E1,3.88E2,2.6E1,5.7E1,6.9E1,3.19E2,3E0,2.3E1,1E0,5.6E1,2E1,4.9E1,2E2,1.19E2,4.9E1,7E0,3E0,1.7E1,2.8E1,2.1E1,1.07E2,9.3E1,3.8E1,8.1E1,4.8E1,1E0,6E0,1E0,1.3E1,4E0,1E0,2.7E1,1.4E1,7E0,3.8E1,6.9E1,6.3E1,3E1,1.1E1,2.7E1,7E1,1.1E1,2.5E1,2.3E1,1E0,5E0,1E0,1.2E1,3E0,1E0,3E0,2.4E1,1.1E1,3E0,6E0,1E0,4E0,3.4E1,6E0,6.3E1,2E0,6.1E1,1.8E1,1.2E1,3E0,8E0,3E0,2.4E1,3.7E1,3.3E1,6E0,5E0],"tree_param":{"num_deleted":"0","num_feature":"444","num_nodes":"73","size_leaf_vector":"1"}},{"base_weights":[-5.492955E-4,8.6387044E-1,-1.8720922E-1,1.1907314E0,5.541303E-1,-7.0459855E-1,-8.8839255E-2,9.7647E-1,1.4510942E0,-5.6389105E-2,6.008994E-1,-6.074135E-1,-9.070653E-2,7.766345E-2,-2.9186732E-1,1.0685188E0,3.9457104E-1,6.3396946E-2,1.2372103E-1,4.9902263E-1,8.973781E-1,-9.400363E-1,-4.7901997E-1,-8.015518E-2,2.6917806E-1,-5.58204E-1,-9.870933E-2,2.2024214E-2,1.0925791E0,5.6221965E-3,3.4179937E-2,6.048561E-1,3.175876E-1,3.3016767E-2,1.0304124E0,3.676345E-3,-1.019888E0,-3.1894717E-1,-7.352163E-1,2.4619216E-1,-1.2745473E-1,9.522813E-2,4.0324265E-1,-3.860759E-1,-8.146537E-1,-3.0219575E-2,-6.230585E-1,8.68803E-2,4.047593E-2,2.7871378E-2,5.050325E-2,2.698436E-2,2.163126E-3,9.43713E-2,4.087034E-2,-2.052561E-2,-7.944497E-2,-4.045704E-2,-5.6763925E-3,-3.5242008E-3,-6.281121E-2,6.6296784E-3,4.3435145E-2,-3.529242E-2,-6.5446184E-3,1.366378E-2,-1.18327765E-2,4.3210693E-2,1.2748051E-2,-4.9902845E-2,-1.2214073E-2,-2.9941112E-2,-8.121604E-2,-1.3260632E-2,1.0274649E-2,-6.652115E-2,-2.2448018E-2],"categories":[],"categories_nodes":[],"categories_segments":[],"categories_sizes":[],"default_left":[0,0,0,0,0,0,0,0,0,0,0,0,0,0,0,0,0,0,0,0,0,0,0,0,0,0,0,0,0,0,0,0,0,0,0,0,0,0,0,0,0,0,0,0,0,0,0,0,0,0,0,0,0,0,0,0,0,0,0,0,0,0,0,0,0,0,0,0,0,0,0,0,0,0,0,0,0],"id":6,"left_children":[1,3,5,7,9,11,13,15,17,-1,19,21,-1,23,25,27,29,-1,-1,31,33,35,37,39,41,43,45,-1,47,-1,-1,49,51,-1,53,-1,55,57,59,61,63,65,67,69,71,73,75,-1,-1,-1,-1,-1,-1,-1,-1,-1,-1,-1,-1,-1,-1,-1,-1,-1,-1,-1,-1,-1,-1,-1,-1,-1,-1,-1,-1,-1,-1],"loss_changes":[7.632012E1,7.8445053E0,1.9735783E1,8.14476E-1,3.2003775E0,2.3071728E0,1.1110615E1,9.1747093E-1,5.2981186E-1,0E0,8.81176E-1,1.8558598E0,0E0,5.492224E0,7.5587673E0,7.0669174E-2,6.3575625E-2,0E0,0E0,4.799719E-1,1.5456104E-1,1.1556807E0,1.4469175E0,1.5749863E0,1.8738828E0,2.4223003E0,3.1055627E0,0E0,1.0272598E-1,0E0,0E0,8.5374355E-2,1.7241597E-1,0E0,8.8694096E-2,0E0,9.210396E-2,1.4073017E0,1.016386E0,6.31791E-1,1.1725199E0,8.427296E-1,1.7573481E0,2.3230867E0,2.2420616E0,1.9361453E0,5.888791E-1,0E0,0E0,0E0,0E0,0E0,0E0,0E0,0E0,0E0,0E0,0E0,0E0,0E0,0E0,0E0,0E0,0E0,0E0,0E0,0E0,0E0,0E0,0E0,0E0,0E0,0E0,0E0,0E0,0E0,0E0],"parents":[2147483647,0,0,1,1,2,2,3,3,4,4,5,5,6,6,7,7,8,8,10,10,11,11,13,13,14,14,15,15,16,16,19,19,20,20,21,21,22,22,23,23,24,24,25,25,26,26,28,28,31,31,32,32,34,34,36,36,37,37,38,38,39,39,40,40,41,41,42,42,43,43,44,44,45,45,46,46],"right_children":[2,4,6,8,10,12,14,16,18,-1,20,22,-1,24,26,28,30,-1,-1,32,34,36,38,40,42,44,46,-1,48,-1,-1,50,52,-1,54,-1,56,58,60,62,64,66,68,70,72,74,76,-1,-1,-1,-1,-1,-1,-1,-1,-1,-1,-1,-1,-1,-1,-1,-1,-1,-1,-1,-1,-1,-1,-1,-1,-1,-1,-1,-1,-1,-1],"split_conditions":[2.9585475E-1,2.4133043E-1,4.659675E-1,1.2536186E-1,2.2378284E-1,2.2517775E-1,3.791816E-1,2.4625395E-1,4.6249476E-1,-5.6389105E-2,1.5960263E-1,3.8197494E-1,-9.070653E-2,2.1207927E-1,5.1316476E-1,3.709061E-1,1.6237865E-1,6.3396946E-2,1.2372103E-1,4.810404E-1,3.3220342E-1,1.8051817E-1,3.472161E-1,3.1669146E-1,5.2731943E-1,4.2023093E-1,4.6721312E-1,2.2024214E-2,2.2517358E-1,5.6221965E-3,3.4179937E-2,2.1171963E-1,3.4660703E-1,3.3016767E-2,3.4270042E-1,3.676345E-3,1.4810759E-1,2.9775685E-1,3.883443E-1,3.44758E-1,1.9274294E-1,4.3030226E-1,5.291615E-1,4.8808476E-1,2.0203252E-1,4.0078878E-1,5.4929024E-1,8.68803E-2,4.047593E-2,2.7871378E-2,5.050325E-2,2.698436E-2,2.163126E-3,9.43713E-2,4.087034E-2,-2.052561E-2,-7.944497E-2,-4.045704E-2,-5.6763925E-3,-3.5242008E-3,-6.281121E-2,6.6296784E-3,4.3435145E-2,-3.529242E-2,-6.5446184E-3,1.366378E-2,-1.18327765E-2,4.3210693E-2,1.2748051E-2,-4.9902845E-2,-1.2214073E-2,-2.9941112E-2,-8.121604E-2,-1.3260632E-2,1.0274649E-2,-6.652115E-2,-2.2448018E-2],"split_indices":[184,172,260,0,149,71,189,165,413,0,4,426,0,13,272,231,80,0,0,264,141,64,177,185,331,194,191,0,46,0,0,124,148,0,147,0,0,159,430,145,84,204,418,246,12,135,354,0,0,0,0,0,0,0,0,0,0,0,0,0,0,0,0,0,0,0,0,0,0,0,0,0,0,0,0,0,0],"split_type":[0,0,0,0,0,0,0,0,0,0,0,0,0,0,0,0,0,0,0,0,0,0,0,0,0,0,0,0,0,0,0,0,0,0,0,0,0,0,0,0,0,0,0,0,0,0,0,0,0,0,0,0,0,0,0,0,0,0,0,0,0,0,0,0,0,0,0,0,0,0,0,0,0,0,0,0,0],"sum_hessian":[4.71E2,8.3E1,3.88E2,3.9E1,4.4E1,6.1E1,3.27E2,2.4E1,1.5E1,1E0,4.3E1,5.3E1,8E0,1.8E2,1.47E2,2E1,4E0,5E0,1E1,3.4E1,9E0,1.3E1,4E1,9.9E1,8.1E1,6.1E1,8.6E1,1E0,1.9E1,1E0,3E0,2E1,1.4E1,3E0,6E0,1E0,1.2E1,2.6E1,1.4E1,1.2E1,8.7E1,3.6E1,4.5E1,3.8E1,2.3E1,7.7E1,9E0,1.6E1,3E0,6E0,1.4E1,1.2E1,2E0,3E0,3E0,1E0,1.1E1,1.3E1,1.3E1,2E0,1.2E1,9E0,3E0,8E0,7.9E1,2.7E1,9E0,2.5E1,2E1,1.6E1,2.2E1,1E1,1.3E1,4.1E1,3.6E1,4E0,5E0],"tree_param":{"num_deleted":"0","num_feature":"444","num_nodes":"77","size_leaf_vector":"1"}},{"base_weights":[-3.025686E-4,8.061718E-1,-1.7445049E-1,1.110834E0,5.1744586E-1,-5.03929E-1,-3.9412484E-2,9.10802E-1,1.3539569E0,-5.4274514E-2,5.620997E-1,-1.9292223E-1,-6.35338E-1,7.787126E-3,-7.1899503E-1,1.0112997E0,4.2400947E-1,5.9434634E-2,1.15285516E-1,4.6466798E-1,8.469006E-1,-7.201186E-1,-5.9015464E-2,-9.412974E-1,-5.0073445E-1,-1.312461E-1,1.4999333E-1,-9.4722223E-1,-3.153082E-1,1.1040431E0,6.108911E-1,1.03826625E-2,3.991407E-2,5.63224E-1,2.9571173E-1,3.1159572E-2,9.724517E-1,5.9839343E-3,-6.500503E-2,-2.370551E-1,1.4867379E-1,3.5384821E-3,-7.412796E-2,-2.2525038E-1,-7.780126E-1,3.211557E-3,-2.8779867E-1,-1.5824538E-2,2.6959318E-1,-2.0302597E-2,-7.408532E-2,2.818568E-2,-3.9528128E-2,8.5942626E-2,1.9425895E-2,1.1192709E-2,5.050312E-2,2.181587E-2,4.5764618E-2,6.783465E-3,2.7159851E-2,8.906291E-2,3.8571384E-2,-2.6566481E-2,-2.6859026E-3,-7.2318926E-3,1.481693E-2,-5.8420505E-3,-2.0003345E-2,-3.3479915E-3,-6.245317E-2,-4.1807357E-2,2.6749542E-3,-3.0044243E-2,-9.041776E-3,2.2366881E-2,-1.1423415E-2,7.80087E-2,1.7567612E-2,-6.947344E-3,1.4648869E-2],"categories":[],"categories_nodes":[],"categories_segments":[],"categories_sizes":[],"default_left":[0,0,0,0,0,0,0,0,0,0,0,0,0,0,0,0,0,0,0,0,0,0,0,0,0,0,0,0,0,0,0,0,0,0,0,0,0,0,0,0,0,0,0,0,0,0,0,0,0,0,0,0,0,0,0,0,0,0,0,0,0,0,0,0,0,0,0,0,0,0,0,0,0,0,0,0,0,0,0,0,0],"id":7,"left_children":[1,3,5,7,9,11,13,15,17,-1,19,21,23,25,27,29,31,-1,-1,33,35,37,39,41,43,45,47,49,51,53,55,-1,-1,57,59,-1,61,-1,-1,63,65,-1,-1,67,69,71,73,75,77,-1,-1,79,-1,-1,-1,-1,-1,-1,-1,-1,-1,-1,-1,-1,-1,-1,-1,-1,-1,-1,-1,-1,-1,-1,-1,-1,-1,-1,-1,-1,-1],"loss_changes":[6.643106E1,6.814171E0,1.7287577E1,7.121048E-1,2.900673E0,4.495634E0,8.890659E0,7.9423714E-1,4.2757797E-1,0E0,8.274126E-1,2.4283326E0,2.782137E0,5.160247E0,1.3597145E0,6.825638E-2,1.1168349E-1,0E0,0E0,4.1625547E-1,1.3766098E-1,8.9009905E-1,1.1075745E0,1.116888E0,4.1787386E0,2.7794833E0,2.5625677E0,3.4600258E-2,5.966883E-1,2.3377419E-1,7.2583675E-2,0E0,0E0,9.114647E-2,1.717515E-1,0E0,7.899666E-2,0E0,0E0,3.645718E-1,1.8679398E-1,0E0,0E0,1.6251051E-1,1.0859852E0,1.329949E0,1.1023731E0,2.4029374E0,1.7997007E0,0E0,0E0,9.886234E-2,0E0,0E0,0E0,0E0,0E0,0E0,0E0,0E0,0E0,0E0,0E0,0E0,0E0,0E0,0E0,0E0,0E0,0E0,0E0,0E0,0E0,0E0,0E0,0E0,0E0,0E0,0E0,0E0,0E0],"parents":[2147483647,0,0,1,1,2,2,3,3,4,4,5,5,6,6,7,7,8,8,10,10,11,11,12,12,13,13,14,14,15,15,16,16,19,19,20,20,21,21,22,22,23,23,24,24,25,25,26,26,27,27,28,28,29,29,30,30,33,33,34,34,36,36,39,39,40,40,43,43,44,44,45,45,46,46,47,47,48,48,51,51],"right_children":[2,4,6,8,10,12,14,16,18,-1,20,22,24,26,28,30,32,-1,-1,34,36,38,40,42,44,46,48,50,52,54,56,-1,-1,58,60,-1,62,-1,-1,64,66,-1,-1,68,70,72,74,76,78,-1,-1,80,-1,-1,-1,-1,-1,-1,-1,-1,-1,-1,-1,-1,-1,-1,-1,-1,-1,-1,-1,-1,-1,-1,-1,-1,-1,-1,-1,-1,-1],"split_conditions":[2.9585475E-1,2.4133043E-1,4.9024987E-1,1.2536186E-1,2.2378284E-1,3.4037164E-1,4.5219538E-1,2.31562E-1,4.6249476E-1,-5.4274514E-2,1.5960263E-1,4.234286E-1,4.3377316E-1,3.3119032E-1,5.080413E-1,1.2663612E-1,9.343628E-2,5.9434634E-2,1.15285516E-1,4.810404E-1,3.3220342E-1,2.207224E-1,2.1437381E-1,1.8051817E-1,3.856418E-1,3.7940955E-1,5.301631E-1,4.496213E-1,2.2967179E-1,5.422019E-1,1.10374816E-1,1.03826625E-2,3.991407E-2,4.06851E-1,4.3372604E-1,3.1159572E-2,3.4270042E-1,5.9839343E-3,-6.500503E-2,3.745081E-1,3.0605373E-1,3.5384821E-3,-7.412796E-2,3.7321275E-1,3.883443E-1,2.2204016E-1,5.2284586E-1,4.5544657E-1,2.4098517E-1,-2.0302597E-2,-7.408532E-2,2.2812651E-1,-3.9528128E-2,8.5942626E-2,1.9425895E-2,1.1192709E-2,5.050312E-2,2.181587E-2,4.5764618E-2,6.783465E-3,2.7159851E-2,8.906291E-2,3.8571384E-2,-2.6566481E-2,-2.6859026E-3,-7.2318926E-3,1.481693E-2,-5.8420505E-3,-2.0003345E-2,-3.3479915E-3,-6.245317E-2,-4.1807357E-2,2.6749542E-3,-3.0044243E-2,-9.041776E-3,2.2366881E-2,-1.1423415E-2,7.80087E-2,1.7567612E-2,-6.947344E-3,1.4648869E-2],"split_indices":[184,172,262,0,149,191,190,170,413,0,4,347,229,120,428,8,0,0,0,264,141,130,81,64,193,186,268,187,4,301,0,0,0,221,424,0,147,0,0,203,189,0,0,197,430,125,279,208,76,0,0,0,0,0,0,0,0,0,0,0,0,0,0,0,0,0,0,0,0,0,0,0,0,0,0,0,0,0,0,0,0],"split_type":[0,0,0,0,0,0,0,0,0,0,0,0,0,0,0,0,0,0,0,0,0,0,0,0,0,0,0,0,0,0,0,0,0,0,0,0,0,0,0,0,0,0,0,0,0,0,0,0,0,0,0,0,0,0,0,0,0,0,0,0,0,0,0,0,0,0,0,0,0,0,0,0,0,0,0,0,0,0,0,0,0],"sum_hessian":[4.71E2,8.3E1,3.88E2,3.9E1,4.4E1,1.12E2,2.76E2,2.4E1,1.5E1,1E0,4.3E1,3.4E1,7.8E1,2.59E2,1.7E1,1.9E1,5E0,5E0,1E1,3.4E1,9E0,6E0,2.8E1,2.2E1,5.6E1,1.31E2,1.28E2,1E1,7E0,1.4E1,5E0,2E0,3E0,2E1,1.4E1,3E0,6E0,1E0,5E0,1.5E1,1.3E1,1E0,2.1E1,2.9E1,2.7E1,7.1E1,6E1,5.4E1,7.4E1,1E0,9E0,3E0,4E0,1.3E1,1E0,1E0,4E0,4E0,1.6E1,4E0,1E1,3E0,3E0,9E0,6E0,2E0,1.1E1,7E0,2.2E1,2E0,2.5E1,3E0,6.8E1,3.5E1,2.5E1,1.6E1,3.8E1,2E0,7.2E1,2E0,1E0],"tree_param":{"num_deleted":"0","num_feature":"444","num_nodes":"81","size_leaf_vector":"1"}},{"base_weights":[2.6522457E-4,7.528294E-1,-1.6224289E-1,1.0373235E0,4.832162E-1,-3.3284697E-1,6.416393E-2,8.333132E-1,1.2403743E0,-5.2239224E-2,5.258585E-1,-6.945031E-1,-2.470878E-1,1.9845517E-1,-1.3139097E-1,8.865859E-1,1.369751E-2,1.8697426E-2,1.2840081E0,4.3271858E-1,7.992624E-1,-3.4750766E-1,-8.380698E-1,-1.276028E-1,-6.788639E-1,1.6181432E-2,2.9635364E-1,-6.070896E-2,-5.42344E-1,9.752855E-2,7.4537677E-1,1.3639054E0,3.4238964E-2,5.242003E-1,2.7579623E-1,2.9406847E-2,9.177513E-1,-4.8787847E-1,9.404176E-3,-9.0675026E-1,-1.8212965E-1,-5.9754816E-3,-2.8640664E-1,-7.301859E-1,-4.7249354E-2,1.6185467E-1,-1.7602603E-1,6.741227E-1,2.4651064E-1,-1.0360146E-1,3.4259048E-1,-5.8084767E-2,-2.5852036E-1,1.6461294E-2,6.269423E-2,5.206537E-2,1.1051101E-1,2.3650821E-2,4.4003986E-2,4.185458E-3,2.4460744E-2,8.405312E-2,3.6401745E-2,-4.4420786E-2,-1.1783367E-2,-1.0233803E-2,-6.9907814E-2,-1.825763E-2,6.699676E-5,-1.4646939E-2,8.0251135E-3,-2.7646884E-2,-3.1603544E-4,-4.008057E-2,-7.264864E-2,8.017854E-3,-1.0070172E-2,4.6554506E-3,3.515569E-2,-2.5025768E-2,-1.2250101E-3,7.15218E-2,-1.2315222E-3,7.886438E-3,2.9944412E-2,3.2863433E-3,-1.2802901E-2,5.030149E-3,3.4768816E-2,-6.599977E-3,-2.4133561E-2],"categories":[],"categories_nodes":[],"categories_segments":[],"categories_sizes":[],"default_left":[0,0,0,0,0,0,0,0,0,0,0,0,0,0,0,0,0,0,0,0,0,0,0,0,0,0,0,0,0,0,0,0,0,0,0,0,0,0,0,0,0,0,0,0,0,0,0,0,0,0,0,0,0,0,0,0,0,0,0,0,0,0,0,0,0,0,0,0,0,0,0,0,0,0,0,0,0,0,0,0,0,0,0,0,0,0,0,0,0,0,0],"id":8,"left_children":[1,3,5,7,9,11,13,15,17,-1,19,21,23,25,27,29,-1,-1,31,33,35,37,39,41,43,45,47,49,51,-1,53,55,-1,57,59,-1,61,63,-1,65,67,69,71,73,75,77,79,81,83,85,87,-1,89,-1,-1,-1,-1,-1,-1,-1,-1,-1,-1,-1,-1,-1,-1,-1,-1,-1,-1,-1,-1,-1,-1,-1,-1,-1,-1,-1,-1,-1,-1,-1,-1,-1,-1,-1,-1,-1,-1],"loss_changes":[5.7846695E1,5.9418297E0,1.5046843E1,6.233597E-1,2.6300793E0,6.7137966E0,4.437976E0,6.353388E-1,4.5829964E-1,0E0,7.7459526E-1,1.8010788E0,9.251304E0,1.7796361E0,1.971317E0,2.577896E-1,0E0,0E0,5.0128937E-1,3.5787106E-1,1.22609615E-1,9.90507E-1,1.1413116E0,2.7603173E0,1.2297153E0,1.036472E0,1.0577159E0,1.0734042E0,4.5859528E-1,0E0,6.73646E-1,7.783699E-2,0E0,8.919048E-2,1.4793694E-1,0E0,7.035971E-2,2.867942E-1,0E0,3.8059807E-1,4.5098647E-2,1.7747511E0,1.4369369E0,1.1630344E0,6.801168E-2,6.139635E-1,3.973607E-1,1.3667119E0,1.2319567E0,5.515626E-1,1.6892654E-1,0E0,3.6406666E-2,0E0,0E0,0E0,0E0,0E0,0E0,0E0,0E0,0E0,0E0,0E0,0E0,0E0,0E0,0E0,0E0,0E0,0E0,0E0,0E0,0E0,0E0,0E0,0E0,0E0,0E0,0E0,0E0,0E0,0E0,0E0,0E0,0E0,0E0,0E0,0E0,0E0,0E0],"parents":[2147483647,0,0,1,1,2,2,3,3,4,4,5,5,6,6,7,7,8,8,10,10,11,11,12,12,13,13,14,14,15,15,18,18,19,19,20,20,21,21,22,22,23,23,24,24,25,25,26,26,27,27,28,28,30,30,31,31,33,33,34,34,36,36,37,37,39,39,40,40,41,41,42,42,43,43,44,44,45,45,46,46,47,47,48,48,49,49,50,50,52,52],"right_children":[2,4,6,8,10,12,14,16,18,-1,20,22,24,26,28,30,-1,-1,32,34,36,38,40,42,44,46,48,50,52,-1,54,56,-1,58,60,-1,62,64,-1,66,68,70,72,74,76,78,80,82,84,86,88,-1,90,-1,-1,-1,-1,-1,-1,-1,-1,-1,-1,-1,-1,-1,-1,-1,-1,-1,-1,-1,-1,-1,-1,-1,-1,-1,-1,-1,-1,-1,-1,-1,-1,-1,-1,-1,-1,-1,-1],"split_conditions":[2.9585475E-1,2.4133043E-1,5.1239264E-1,4.9877807E-1,2.2378284E-1,4.3193945E-1,3.8969213E-1,4.7097284E-1,2.2664052E-1,-5.2239224E-2,1.5960263E-1,1.8663996E-1,4.053505E-1,2.1207927E-1,4.6721312E-1,1.6357188E-1,1.369751E-2,1.8697426E-2,3.1041634E-1,4.810404E-1,3.3220342E-1,1.9463718E-1,4.7037923E-1,3.949097E-1,2.795554E-1,4.6316844E-1,2.1408106E-1,4.7656167E-1,5.4929024E-1,9.752855E-2,1.0024335E-1,1.2611267E-1,3.4238964E-2,2.1171963E-1,4.72439E-1,2.9406847E-2,3.4270042E-1,4.0609774E-1,9.404176E-3,3.0593163E-1,2.0850599E-1,1.9430403E-1,4.294679E-1,2.242545E-1,2.1489005E-1,3.6667806E-1,4.8596415E-1,2.2008358E-1,2.4508648E-1,4.836096E-1,5.623121E-1,-5.8084767E-2,2.2812651E-1,1.6461294E-2,6.269423E-2,5.206537E-2,1.1051101E-1,2.3650821E-2,4.4003986E-2,4.185458E-3,2.4460744E-2,8.405312E-2,3.6401745E-2,-4.4420786E-2,-1.1783367E-2,-1.0233803E-2,-6.9907814E-2,-1.825763E-2,6.699676E-5,-1.4646939E-2,8.0251135E-3,-2.7646884E-2,-3.1603544E-4,-4.008057E-2,-7.264864E-2,8.017854E-3,-1.0070172E-2,4.6554506E-3,3.515569E-2,-2.5025768E-2,-1.2250101E-3,7.15218E-2,-1.2315222E-3,7.886438E-3,2.9944412E-2,3.2863433E-3,-1.2802901E-2,5.030149E-3,3.4768816E-2,-6.599977E-3,-2.4133561E-2],"split_indices":[184,172,258,344,149,221,187,403,148,0,4,63,192,13,191,98,0,0,135,264,141,85,407,199,77,208,12,137,354,0,11,9,0,124,233,0,147,416,0,172,0,46,202,69,28,177,211,22,8,441,267,0,0,0,0,0,0,0,0,0,0,0,0,0,0,0,0,0,0,0,0,0,0,0,0,0,0,0,0,0,0,0,0,0,0,0,0,0,0,0,0],"split_type":[0,0,0,0,0,0,0,0,0,0,0,0,0,0,0,0,0,0,0,0,0,0,0,0,0,0,0,0,0,0,0,0,0,0,0,0,0,0,0,0,0,0,0,0,0,0,0,0,0,0,0,0,0,0,0,0,0,0,0,0,0,0,0,0,0,0,0,0,0,0,0,0,0,0,0,0,0,0,0,0,0,0,0,0,0,0,0,0,0,0,0],"sum_hessian":[4.71E2,8.3E1,3.88E2,3.9E1,4.4E1,2.21E2,1.67E2,2.2E1,1.7E1,1E0,4.3E1,4.1E1,1.8E2,9.9E1,6.8E1,2E1,2E0,1E0,1.6E1,3.4E1,9E0,1.3E1,2.8E1,1.42E2,3.8E1,3.5E1,6.4E1,5.9E1,9E0,3E0,1.7E1,1.4E1,2E0,2E1,1.4E1,3E0,6E0,1E1,3E0,2.5E1,3E0,8.1E1,6.1E1,3.5E1,3E0,2E1,1.5E1,6E0,5.8E1,5.4E1,5E0,4E0,5E0,3E0,1.4E1,3E0,1.1E1,6E0,1.4E1,3E0,1.1E1,3E0,3E0,7E0,3E0,1E0,2.4E1,2E0,1E0,3E1,5.1E1,4.7E1,1.4E1,2.1E1,1.4E1,1E0,2E0,1.6E1,4E0,7E0,8E0,4E0,2E0,3.1E1,2.7E1,1.7E1,3.7E1,2E0,3E0,2E0,3E0],"tree_param":{"num_deleted":"0","num_feature":"444","num_nodes":"91","size_leaf_vector":"1"}},{"base_weights":[1.0259778E-3,7.035079E-1,-1.5066941E-1,1.0763841E0,5.177981E-1,-4.2988005E-1,-2.8987333E-2,4.482481E-1,1.1362242E0,-5.028025E-2,5.504052E-1,-3.0013922E-1,-6.849925E-1,1.7431958E-2,-5.846385E-1,9.307816E-3,3.86196E-2,1.2286931E0,6.540349E-1,4.610447E-1,7.8008085E-2,-5.8653826E-1,-6.435027E-2,-7.052618E-1,3.196555E-3,-7.751532E-2,1.8340021E-1,-8.629919E-1,-3.4696004E-1,1.3114642E0,4.4282675E-2,1.0259327E-2,5.4759413E-2,4.718234E-1,-2.516683E-3,-8.776849E-1,-4.2332628E-1,1.3232362E-1,-1.1045067E-1,-3.9509657E-1,-7.6255405E-1,2.5321122E-2,-1.9577205E-1,7.138057E-2,3.272412E-1,-1.6816927E-2,-6.861071E-2,-1.9874375E-1,-4.7307063E-2,5.4388735E-2,1.08484454E-1,6.857025E-3,3.6454894E-2,3.0531324E-3,-7.23657E-2,-2.5146182E-3,-3.8932458E-2,-9.723028E-3,1.692679E-2,-5.450967E-3,-2.2011612E-2,-4.3973513E-2,-4.2975987E-3,-5.843466E-2,-9.949211E-3,-3.703461E-3,1.7649796E-2,-1.6357496E-2,5.4618463E-2,2.1109793E-2,-2.6732911E-3,5.3237192E-2,1.3203819E-2,-2.0526275E-2,5.0507947E-3],"categories":[],"categories_nodes":[],"categories_segments":[],"categories_sizes":[],"default_left":[0,0,0,0,0,0,0,0,0,0,0,0,0,0,0,0,0,0,0,0,0,0,0,0,0,0,0,0,0,0,0,0,0,0,0,0,0,0,0,0,0,0,0,0,0,0,0,0,0,0,0,0,0,0,0,0,0,0,0,0,0,0,0,0,0,0,0,0,0,0,0,0,0,0,0],"id":9,"left_children":[1,3,5,7,9,11,13,15,17,-1,19,21,23,25,27,-1,-1,29,31,33,-1,35,37,39,-1,41,43,45,47,49,-1,-1,-1,51,-1,53,55,57,59,61,63,65,67,69,71,-1,-1,73,-1,-1,-1,-1,-1,-1,-1,-1,-1,-1,-1,-1,-1,-1,-1,-1,-1,-1,-1,-1,-1,-1,-1,-1,-1,-1,-1],"loss_changes":[5.040386E1,5.2593803E0,1.3203786E1,5.055561E-1,2.6161346E0,3.7000294E0,7.025869E0,2.2550762E-2,2.6649475E-1,0E0,2.0147877E0,5.3646336E0,6.0523987E-1,3.9852908E0,1.0899067E0,0E0,0E0,2.2941971E-1,1.3626981E-1,2.823906E-1,0E0,1.3391228E0,4.2261875E-1,3.7397957E-1,0E0,1.9628944E0,1.4590394E0,9.277058E-2,4.2147076E-1,2.173729E-1,0E0,0E0,0E0,2.2101974E-1,0E0,1.000186E0,9.158993E-1,2.493875E-1,2.3447001E-1,4.831407E-1,2.2029495E-1,1.376462E0,1.7061844E0,1.2016871E0,2.1887774E0,0E0,0E0,2.178368E-1,0E0,0E0,0E0,0E0,0E0,0E0,0E0,0E0,0E0,0E0,0E0,0E0,0E0,0E0,0E0,0E0,0E0,0E0,0E0,0E0,0E0,0E0,0E0,0E0,0E0,0E0,0E0],"parents":[2147483647,0,0,1,1,2,2,3,3,4,4,5,5,6,6,7,7,8,8,10,10,11,11,12,12,13,13,14,14,17,17,18,18,19,19,21,21,22,22,23,23,25,25,26,26,27,27,28,28,29,29,33,33,35,35,36,36,37,37,38,38,39,39,40,40,41,41,42,42,43,43,44,44,47,47],"right_children":[2,4,6,8,10,12,14,16,18,-1,20,22,24,26,28,-1,-1,30,32,34,-1,36,38,40,-1,42,44,46,48,50,-1,-1,-1,52,-1,54,56,58,60,62,64,66,68,70,72,-1,-1,74,-1,-1,-1,-1,-1,-1,-1,-1,-1,-1,-1,-1,-1,-1,-1,-1,-1,-1,-1,-1,-1,-1,-1,-1,-1,-1,-1],"split_conditions":[2.9585475E-1,2.3800078E-1,4.9410722E-1,4.2901552E-1,2.2378284E-1,3.710963E-1,4.4415E-1,7.558909E-2,4.796839E-1,-5.028025E-2,1.8788706E-1,4.2873362E-1,4.9277905E-1,2.8562847E-1,3.8477236E-1,9.307816E-3,3.86196E-2,4.384985E-1,4.4308785E-1,3.368393E-1,7.8008085E-2,4.1435996E-1,3.1669146E-1,1.921772E-1,3.196555E-3,3.7940955E-1,5.452667E-1,4.496213E-1,4.8393568E-1,4.7000265E-1,4.4282675E-2,1.0259327E-2,5.4759413E-2,6.804615E-2,-2.516683E-3,1.6428792E-1,2.8738773E-1,4.263208E-1,4.9620584E-1,1.654501E-1,4.9548998E-1,2.1212254E-1,4.4876927E-1,3.644071E-1,5.382503E-1,-1.6816927E-2,-6.861071E-2,2.8276834E-1,-4.7307063E-2,5.4388735E-2,1.08484454E-1,6.857025E-3,3.6454894E-2,3.0531324E-3,-7.23657E-2,-2.5146182E-3,-3.8932458E-2,-9.723028E-3,1.692679E-2,-5.450967E-3,-2.2011612E-2,-4.3973513E-2,-4.2975987E-3,-5.843466E-2,-9.949211E-3,-3.703461E-3,1.7649796E-2,-1.6357496E-2,5.4618463E-2,2.1109793E-2,-2.6732911E-3,5.3237192E-2,1.3203819E-2,-2.0526275E-2,5.0507947E-3],"split_indices":[184,167,271,373,149,189,185,0,432,0,10,219,236,82,127,0,0,223,227,64,0,353,185,73,0,186,264,187,150,351,0,0,0,19,0,12,163,213,320,11,277,12,174,179,227,0,0,58,0,0,0,0,0,0,0,0,0,0,0,0,0,0,0,0,0,0,0,0,0,0,0,0,0,0,0],"split_type":[0,0,0,0,0,0,0,0,0,0,0,0,0,0,0,0,0,0,0,0,0,0,0,0,0,0,0,0,0,0,0,0,0,0,0,0,0,0,0,0,0,0,0,0,0,0,0,0,0,0,0,0,0,0,0,0,0,0,0,0,0,0,0,0,0,0,0,0,0,0,0,0,0,0,0],"sum_hessian":[4.71E2,8.3E1,3.88E2,2.6E1,5.7E1,1.17E2,2.71E2,3E0,2.3E1,1E0,5.6E1,7.9E1,3.8E1,2.51E2,2E1,1E0,2E0,1.8E1,5E0,4.9E1,7E0,3.5E1,4.4E1,3.7E1,1E0,1.6E2,9.1E1,8E0,1.2E1,1.5E1,3E0,1E0,4E0,4.8E1,1E0,1.1E1,2.4E1,8E0,3.6E1,7E0,3E1,8.6E1,7.4E1,5.2E1,3.9E1,1E0,7E0,9E0,3E0,4E0,1.1E1,2E0,4.6E1,1E0,1E1,5E0,1.9E1,2E0,6E0,3.1E1,5E0,4E0,3E0,2.9E1,1E0,6.4E1,2.2E1,7.3E1,1E0,1.7E1,3.5E1,1E1,2.9E1,7E0,2E0],"tree_param":{"num_deleted":"0","num_feature":"444","num_nodes":"75","size_leaf_vector":"1"}},{"base_weights":[1.2308537E-3,7.578547E-1,-1.21467926E-1,1.0075109E0,5.7039034E-1,-5.079295E-1,-5.4487575E-2,4.266113E-1,1.0623479E0,4.407483E-1,7.259724E-2,1.8401159E-2,-6.011722E-1,6.6824436E-2,-2.714428E-1,8.958773E-3,3.668862E-2,1.147444E0,6.1581874E-1,1.8481256E-1,4.812989E-1,1.830581E-2,-1.13185465E-1,-8.752747E-1,-4.8436671E-1,-2.6967175E-2,2.1764083E-1,-5.250868E-1,-1.3203084E-1,1.2469207E0,4.6464372E-2,1.7211596E-2,5.6370918E-2,1.3260727E-2,2.0045498E-2,5.716824E-1,2.9786086E-1,-1.1490251E-2,4.759567E-3,2.93864E-3,-7.114737E-2,-2.3774338E-1,-6.348713E-1,1.7270839E-1,-1.41085E-1,3.1612197E-1,4.1575074E-2,-3.2704526E-1,-7.684549E-1,-5.5544302E-2,-5.735737E-1,5.112541E-2,1.0428717E-1,1.1977567E-3,2.9407517E-4,2.2931779E-2,4.7248937E-2,1.477187E-2,2.8466424E-2,-2.5013145E-2,9.969706E-3,-6.0395915E-2,-3.508528E-2,2.5635773E-2,4.621692E-3,-1.7636603E-2,8.077346E-4,2.531293E-2,-1.2527382E-2,-4.5081866E-3,2.0346846E-2,-5.0665125E-2,-1.00973435E-2,-3.717316E-3,-6.0422983E-2,-6.6122757E-3,2.3439463E-2,-5.9142794E-2,-1.7036129E-2],"categories":[],"categories_nodes":[],"categories_segments":[],"categories_sizes":[],"default_left":[0,0,0,0,0,0,0,0,0,0,0,0,0,0,0,0,0,0,0,0,0,0,0,0,0,0,0,0,0,0,0,0,0,0,0,0,0,0,0,0,0,0,0,0,0,0,0,0,0,0,0,0,0,0,0,0,0,0,0,0,0,0,0,0,0,0,0,0,0,0,0,0,0,0,0,0,0,0,0],"id":10,"left_children":[1,3,5,7,9,11,13,15,17,19,-1,21,23,25,27,-1,-1,29,31,33,35,-1,37,39,41,43,45,47,49,51,-1,-1,-1,53,-1,55,57,-1,-1,-1,-1,59,61,63,65,67,69,71,73,75,77,-1,-1,-1,-1,-1,-1,-1,-1,-1,-1,-1,-1,-1,-1,-1,-1,-1,-1,-1,-1,-1,-1,-1,-1,-1,-1,-1,-1],"loss_changes":[4.3911037E1,2.5142326E0,1.0507654E1,4.0686798E-1,1.6350584E0,2.9556503E0,9.177247E0,1.8443644E-2,2.053318E-1,2.4315691E-1,0E0,3.2458586E-1,1.2088985E0,3.174419E0,4.3507977E0,0E0,0E0,2.2529984E-1,1.4228106E-1,8.13335E-2,2.7737236E-1,0E0,5.920551E-2,9.7631264E-1,1.2595453E0,3.1916957E0,1.478025E0,1.8693485E0,2.7374523E0,2.694702E-1,0E0,0E0,0E0,1.3295386E-5,0E0,7.095146E-2,1.5915811E-2,0E0,0E0,0E0,0E0,6.122939E-1,2.7808762E-1,9.3696296E-1,1.2738914E0,6.246147E-1,7.637795E-1,1.6524637E0,4.6797276E-1,8.799956E-1,7.146418E-1,0E0,0E0,0E0,0E0,0E0,0E0,0E0,0E0,0E0,0E0,0E0,0E0,0E0,0E0,0E0,0E0,0E0,0E0,0E0,0E0,0E0,0E0,0E0,0E0,0E0,0E0,0E0,0E0],"parents":[2147483647,0,0,1,1,2,2,3,3,4,4,5,5,6,6,7,7,8,8,9,9,11,11,12,12,13,13,14,14,17,17,18,18,19,19,20,20,22,22,23,23,24,24,25,25,26,26,27,27,28,28,29,29,33,33,35,35,36,36,41,41,42,42,43,43,44,44,45,45,46,46,47,47,48,48,49,49,50,50],"right_children":[2,4,6,8,10,12,14,16,18,20,-1,22,24,26,28,-1,-1,30,32,34,36,-1,38,40,42,44,46,48,50,52,-1,-1,-1,54,-1,56,58,-1,-1,-1,-1,60,62,64,66,68,70,72,74,76,78,-1,-1,-1,-1,-1,-1,-1,-1,-1,-1,-1,-1,-1,-1,-1,-1,-1,-1,-1,-1,-1,-1,-1,-1,-1,-1,-1,-1],"split_conditions":[2.4863596E-1,2.3800078E-1,4.507765E-1,4.2901552E-1,3.212238E-1,1.8320958E-1,3.902422E-1,7.558909E-2,4.796839E-1,1.4045574E-1,7.259724E-2,8.540633E-2,4.1435996E-1,5.240823E-1,5.0089645E-1,8.958773E-3,3.668862E-2,4.5468593E-1,4.358272E-1,2.3041657E-1,3.0649647E-1,1.830581E-2,1.7918189E-1,1.6428792E-1,3.5901597E-1,3.4037164E-1,5.2324986E-1,4.2023093E-1,4.6721312E-1,4.7000265E-1,4.6464372E-2,1.7211596E-2,5.6370918E-2,6.74419E-2,2.0045498E-2,2.7818727E-1,4.8707658E-1,-1.1490251E-2,4.759567E-3,2.93864E-3,-7.114737E-2,2.017565E-1,4.3377316E-1,4.6722397E-1,2.0822148E-1,5.830793E-1,2.37179E-1,2.1135819E-1,1.5286669E-1,4.7656167E-1,5.4929024E-1,5.112541E-2,1.0428717E-1,1.1977567E-3,2.9407517E-4,2.2931779E-2,4.7248937E-2,1.477187E-2,2.8466424E-2,-2.5013145E-2,9.969706E-3,-6.0395915E-2,-3.508528E-2,2.5635773E-2,4.621692E-3,-1.7636603E-2,8.077346E-4,2.531293E-2,-1.2527382E-2,-4.5081866E-3,2.0346846E-2,-5.0665125E-2,-1.00973435E-2,-3.717316E-3,-6.0422983E-2,-6.6122757E-3,2.3439463E-2,-5.9142794E-2,-1.7036129E-2],"split_indices":[181,167,232,373,82,73,190,0,432,97,0,0,353,317,230,0,0,228,225,178,145,0,58,12,192,191,438,194,191,351,0,0,0,0,0,148,363,0,0,0,0,3,229,389,19,238,0,82,0,137,354,0,0,0,0,0,0,0,0,0,0,0,0,0,0,0,0,0,0,0,0,0,0,0,0,0,0,0,0],"split_type":[0,0,0,0,0,0,0,0,0,0,0,0,0,0,0,0,0,0,0,0,0,0,0,0,0,0,0,0,0,0,0,0,0,0,0,0,0,0,0,0,0,0,0,0,0,0,0,0,0,0,0,0,0,0,0,0,0,0,0,0,0,0,0,0,0,0,0,0,0,0,0,0,0,0,0,0,0,0,0],"sum_hessian":[4.71E2,6.5E1,4.06E2,2.6E1,3.9E1,5.9E1,3.47E2,3E0,2.3E1,3.1E1,8E0,9E0,5E1,2.23E2,1.24E2,1E0,2E0,1.8E1,5E0,5E0,2.6E1,3E0,6E0,1.3E1,3.7E1,1.38E2,8.5E1,4.3E1,8.1E1,1.4E1,4E0,2E0,3E0,2E0,3E0,1.6E1,1E1,5E0,1E0,1E0,1.2E1,1.5E1,2.2E1,5E1,8.8E1,5.4E1,3.1E1,2.5E1,1.8E1,7E1,1.1E1,4E0,1E1,1E0,1E0,4E0,1.2E1,6E0,4E0,1.2E1,3E0,9E0,1.3E1,1.9E1,3.1E1,5.4E1,3.4E1,5.2E1,2E0,2.2E1,9E0,8E0,1.7E1,1E0,1.7E1,6.5E1,5E0,6E0,5E0],"tree_param":{"num_deleted":"0","num_feature":"444","num_nodes":"79","size_leaf_vector":"1"}},{"base_weights":[1.6031574E-3,7.0902556E-1,-1.1311793E-1,9.4384044E-1,5.327999E-1,-4.7262076E-1,-5.0809633E-2,4.060273E-1,9.9414927E-1,4.2733455E-1,9.68946E-1,1.8178588E-2,-5.5958885E-1,6.2000338E-2,-2.5255862E-1,8.62282E-3,3.4854185E-2,1.0720109E0,5.8189607E-1,4.8950905E-1,2.5283247E-1,1.9680558E-2,7.822259E-2,1.7276108E-2,-1.0565808E-1,-8.1450117E-1,-4.5094776E-1,-6.2630855E-2,1.5943278E-1,-4.8854402E-1,-1.2285234E-1,1.1242304E0,3.140725E-2,1.6351014E-2,5.3200044E-2,2.7680248E-1,5.4503334E-1,1.1528409E-3,2.7504146E-1,-1.0772109E-2,4.581083E-3,2.8284409E-3,-6.622178E-2,-2.2085284E-1,-5.9140736E-1,2.976321E-1,-1.15743354E-1,6.802149E-1,1.2772521E-1,-3.048539E-1,-7.141966E-1,-5.1141478E-2,-5.369039E-1,8.998626E-2,4.339655E-2,3.1583633E-2,4.746693E-3,4.3560185E-2,1.2944038E-2,2.161324E-2,5.880977E-3,-2.3281466E-2,9.408909E-3,-5.6319196E-2,-3.2641843E-2,9.2387805E-3,3.221712E-2,-1.10316435E-2,1.0524271E-2,1.5872922E-2,6.1898816E-2,5.576789E-3,2.715568E-2,-4.7287446E-2,-9.382115E-3,-3.577917E-3,-5.6143023E-2,-6.123869E-3,2.1974497E-2,-5.534076E-2,-1.597137E-2],"categories":[],"categories_nodes":[],"categories_segments":[],"categories_sizes":[],"default_left":[0,0,0,0,0,0,0,0,0,0,0,0,0,0,0,0,0,0,0,0,0,0,0,0,0,0,0,0,0,0,0,0,0,0,0,0,0,0,0,0,0,0,0,0,0,0,0,0,0,0,0,0,0,0,0,0,0,0,0,0,0,0,0,0,0,0,0,0,0,0,0,0,0,0,0,0,0,0,0,0,0],"id":11,"left_children":[1,3,5,7,9,11,13,15,17,19,21,23,25,27,29,-1,-1,31,33,35,37,-1,-1,-1,39,41,43,45,47,49,51,53,-1,-1,-1,55,57,-1,59,-1,-1,-1,-1,61,63,65,67,69,71,73,75,77,79,-1,-1,-1,-1,-1,-1,-1,-1,-1,-1,-1,-1,-1,-1,-1,-1,-1,-1,-1,-1,-1,-1,-1,-1,-1,-1,-1,-1],"loss_changes":[3.8385963E1,2.2282295E0,9.09279E0,3.268814E-1,1.425868E0,2.5712042E0,7.935894E0,1.4904857E-2,1.465683E-1,2.4512196E-1,9.241247E-2,2.8708178E-1,1.0450945E0,2.7300448E0,3.76608E0,0E0,0E0,1.7734718E-1,1.2358999E-1,1.3258266E-1,5.3783834E-2,0E0,0E0,0E0,5.3090632E-2,8.500452E-1,1.0975094E0,1.9287612E0,1.9937232E0,1.606082E0,2.4072857E0,6.855011E-3,0E0,0E0,0E0,1.8903649E-1,1.3955784E-1,0E0,3.2304525E-3,0E0,0E0,0E0,0E0,5.35221E-1,2.4619102E-1,2.4627864E-1,7.189431E-1,3.0127215E-1,1.4738964E0,1.4431076E0,3.996153E-1,7.693941E-1,6.2413573E-1,0E0,0E0,0E0,0E0,0E0,0E0,0E0,0E0,0E0,0E0,0E0,0E0,0E0,0E0,0E0,0E0,0E0,0E0,0E0,0E0,0E0,0E0,0E0,0E0,0E0,0E0,0E0,0E0],"parents":[2147483647,0,0,1,1,2,2,3,3,4,4,5,5,6,6,7,7,8,8,9,9,10,10,11,11,12,12,13,13,14,14,17,17,18,18,19,19,20,20,24,24,25,25,26,26,27,27,28,28,29,29,30,30,31,31,35,35,36,36,38,38,43,43,44,44,45,45,46,46,47,47,48,48,49,49,50,50,51,51,52,52],"right_children":[2,4,6,8,10,12,14,16,18,20,22,24,26,28,30,-1,-1,32,34,36,38,-1,-1,-1,40,42,44,46,48,50,52,54,-1,-1,-1,56,58,-1,60,-1,-1,-1,-1,62,64,66,68,70,72,74,76,78,80,-1,-1,-1,-1,-1,-1,-1,-1,-1,-1,-1,-1,-1,-1,-1,-1,-1,-1,-1,-1,-1,-1,-1,-1,-1,-1,-1,-1],"split_conditions":[2.4863596E-1,2.3800078E-1,4.507765E-1,4.2901552E-1,1.8419258E-1,1.8320958E-1,3.902422E-1,7.558909E-2,4.796839E-1,3.9829606E-1,4.5809776E-1,8.540633E-2,4.1435996E-1,2.1544899E-1,5.0089645E-1,8.62282E-3,3.4854185E-2,2.5710762E-1,4.358272E-1,2.7818727E-1,6.74419E-2,1.9680558E-2,7.822259E-2,1.7276108E-2,1.7918189E-1,1.6428792E-1,3.5901597E-1,3.263755E-1,2.1535534E-1,4.2023093E-1,4.6721312E-1,4.5468593E-1,3.140725E-2,1.6351014E-2,5.3200044E-2,2.675096E-1,1.8556552E-1,1.1528409E-3,2.5158358E-1,-1.0772109E-2,4.581083E-3,2.8284409E-3,-6.622178E-2,2.017565E-1,4.3377316E-1,3.2137468E-1,2.089355E-1,2.158008E-1,2.3807187E-1,2.1135819E-1,1.5286669E-1,4.7656167E-1,5.4929024E-1,8.998626E-2,4.339655E-2,3.1583633E-2,4.746693E-3,4.3560185E-2,1.2944038E-2,2.161324E-2,5.880977E-3,-2.3281466E-2,9.408909E-3,-5.6319196E-2,-3.2641843E-2,9.2387805E-3,3.221712E-2,-1.10316435E-2,1.0524271E-2,1.5872922E-2,6.1898816E-2,5.576789E-3,2.715568E-2,-4.7287446E-2,-9.382115E-3,-3.577917E-3,-5.6143023E-2,-6.123869E-3,2.1974497E-2,-5.534076E-2,-1.597137E-2],"split_indices":[181,167,232,373,9,73,190,0,432,213,235,0,353,56,230,0,0,154,225,148,0,0,0,0,58,12,192,168,52,194,191,228,0,0,0,152,12,0,177,0,0,0,0,3,229,168,21,55,0,82,0,137,354,0,0,0,0,0,0,0,0,0,0,0,0,0,0,0,0,0,0,0,0,0,0,0,0,0,0,0,0],"split_type":[0,0,0,0,0,0,0,0,0,0,0,0,0,0,0,0,0,0,0,0,0,0,0,0,0,0,0,0,0,0,0,0,0,0,0,0,0,0,0,0,0,0,0,0,0,0,0,0,0,0,0,0,0,0,0,0,0,0,0,0,0,0,0,0,0,0,0,0,0,0,0,0,0,0,0,0,0,0,0,0,0],"sum_hessian":[4.71E2,6.5E1,4.06E2,2.6E1,3.9E1,5.9E1,3.47E2,3E0,2.3E1,3.3E1,6E0,9E0,5E1,2.23E2,1.24E2,1E0,2E0,1.8E1,5E0,2.3E1,1E1,1E0,5E0,3E0,6E0,1.3E1,3.7E1,9.8E1,1.25E2,4.3E1,8.1E1,1.6E1,2E0,2E0,3E0,6E0,1.7E1,1E0,9E0,5E0,1E0,1E0,1.2E1,1.5E1,2.2E1,1.2E1,8.6E1,6E0,1.19E2,2.5E1,1.8E1,7E1,1.1E1,1.3E1,3E0,3E0,3E0,1.5E1,2E0,8E0,1E0,1.2E1,3E0,9E0,1.3E1,6E0,6E0,7.7E1,9E0,2E0,4E0,9.8E1,2.1E1,8E0,1.7E1,1E0,1.7E1,6.5E1,5E0,6E0,5E0],"tree_param":{"num_deleted":"0","num_feature":"444","num_nodes":"81","size_leaf_vector":"1"}},{"base_weights":[2.1644088E-3,6.6338205E-1,-1.0506539E-1,8.8334197E-1,4.9832454E-1,-2.2322606E-1,5.931557E-2,4.414502E-1,9.409992E-1,3.8368928E-1,8.505471E-1,1.8105833E-2,-3.2043716E-1,1.627307E-1,-9.591739E-2,8.299463E-3,3.723623E-2,1.0608556E0,6.366831E-1,1.6371162E-1,4.183625E-1,1.8942537E-2,6.702928E-2,-6.0672814E-1,9.843754E-2,-6.236373E-1,-2.5317687E-1,3.8080686E-1,1.05594195E-1,-4.0815584E-2,-4.1693652E-1,8.910609E-2,4.2659134E-2,1.7151497E-2,6.0192518E-2,1.079693E-2,1.7810231E-2,4.997129E-1,2.5460622E-1,-4.5059472E-2,-5.8983088E-2,1.30155645E-2,2.5315863E-1,2.7223744E-3,-6.4764535E-1,-1.8339863E-1,-5.6682074E-1,1.370515E-1,4.141518E-2,-1.9683768E-3,2.7708355E-1,-1.3201997E-1,8.352937E-2,-5.331753E-1,-1.0928449E-1,1.1096093E-3,1.05045365E-4,2.0465964E-2,4.113878E-2,1.2055418E-2,2.513244E-2,-1.2381417E-2,7.312226E-3,5.561522E-3,-2.6698656E-2,2.8754842E-2,6.6048745E-3,-2.5653971E-2,-5.227937E-2,-2.0805035E-2,-1.7454653E-3,-2.2424433E-2,-5.669255E-2,1.5675697E-2,-7.538983E-3,7.4219396E-3,-1.2630034E-2,6.379605E-2,1.4131599E-2,1.1116283E-2,-1.2219299E-2,3.3425394E-2,-1.7938133E-3,-1.1428598E-2,-4.2843305E-2,-3.5932893E-3,-1.100274E-2],"categories":[],"categories_nodes":[],"categories_segments":[],"categories_sizes":[],"default_left":[0,0,0,0,0,0,0,0,0,0,0,0,0,0,0,0,0,0,0,0,0,0,0,0,0,0,0,0,0,0,0,0,0,0,0,0,0,0,0,0,0,0,0,0,0,0,0,0,0,0,0,0,0,0,0,0,0,0,0,0,0,0,0,0,0,0,0,0,0,0,0,0,0,0,0,0,0,0,0,0,0,0,0,0,0,0,0],"id":12,"left_children":[1,3,5,7,9,11,13,15,17,19,21,23,25,27,29,-1,-1,31,33,35,37,-1,-1,39,41,43,45,47,49,51,53,-1,-1,-1,-1,55,-1,57,59,61,-1,63,65,-1,67,69,71,73,-1,75,77,79,81,83,85,-1,-1,-1,-1,-1,-1,-1,-1,-1,-1,-1,-1,-1,-1,-1,-1,-1,-1,-1,-1,-1,-1,-1,-1,-1,-1,-1,-1,-1,-1,-1,-1],"loss_changes":[3.3535553E1,1.9560051E0,7.9185495E0,2.7251053E-1,1.2887392E0,5.565855E0,2.7607465E0,3.6081195E-2,1.6347885E-1,1.7558432E-1,6.6428185E-3,3.5231094E0,3.2885818E0,1.2431803E0,1.203505E0,0E0,0E0,2.6328468E-1,4.2558336E-1,6.510824E-2,2.324543E-1,0E0,0E0,7.720766E-1,8.16133E-1,4.9882126E-1,2.960019E0,8.016703E-1,1.5315499E0,6.9147575E-1,2.993431E-1,0E0,0E0,0E0,0E0,9.1973925E-5,0E0,3.8517952E-2,2.9248774E-2,6.742649E-2,0E0,9.513492E-1,4.3927288E-1,0E0,1.9947529E-1,1.7395892E0,1.0400152E0,1.919606E-1,0E0,8.901392E-1,1.4669418E0,3.2726383E-1,1.0223476E0,1.4427543E-2,2.157513E-3,0E0,0E0,0E0,0E0,0E0,0E0,0E0,0E0,0E0,0E0,0E0,0E0,0E0,0E0,0E0,0E0,0E0,0E0,0E0,0E0,0E0,0E0,0E0,0E0,0E0,0E0,0E0,0E0,0E0,0E0,0E0,0E0],"parents":[2147483647,0,0,1,1,2,2,3,3,4,4,5,5,6,6,7,7,8,8,9,9,10,10,11,11,12,12,13,13,14,14,17,17,18,18,19,19,20,20,23,23,24,24,25,25,26,26,27,27,28,28,29,29,30,30,35,35,37,37,38,38,39,39,41,41,42,42,44,44,45,45,46,46,47,47,49,49,50,50,51,51,52,52,53,53,54,54],"right_children":[2,4,6,8,10,12,14,16,18,20,22,24,26,28,30,-1,-1,32,34,36,38,-1,-1,40,42,44,46,48,50,52,54,-1,-1,-1,-1,56,-1,58,60,62,-1,64,66,-1,68,70,72,74,-1,76,78,80,82,84,86,-1,-1,-1,-1,-1,-1,-1,-1,-1,-1,-1,-1,-1,-1,-1,-1,-1,-1,-1,-1,-1,-1,-1,-1,-1,-1,-1,-1,-1,-1,-1,-1],"split_conditions":[2.4863596E-1,2.3800078E-1,5.124755E-1,4.3585876E-1,3.212238E-1,3.4037164E-1,3.8969213E-1,7.558909E-2,3.4456474E-1,1.4045574E-1,4.5809776E-1,4.100979E-1,4.65701E-1,4.5444143E-1,4.6721312E-1,8.299463E-3,3.723623E-2,5.066682E-1,2.4748524E-1,2.3041657E-1,3.0649647E-1,1.8942537E-2,6.702928E-2,1.7534035E-1,2.1544757E-1,1.8051817E-1,4.2023093E-1,4.6690086E-1,4.150591E-1,5.267221E-1,5.524226E-1,8.910609E-2,4.2659134E-2,1.7151497E-2,6.0192518E-2,6.74419E-2,1.7810231E-2,2.7818727E-1,4.8707658E-1,1.4810759E-1,-5.8983088E-2,2.064579E-1,4.5539162E-1,2.7223744E-3,2.5500375E-1,4.7536257E-1,2.0203252E-1,4.6999615E-1,4.141518E-2,4.631833E-1,4.1556245E-1,2.4116814E-1,5.4716706E-1,5.2408534E-1,2.2812651E-1,1.1096093E-3,1.05045365E-4,2.0465964E-2,4.113878E-2,1.2055418E-2,2.513244E-2,-1.2381417E-2,7.312226E-3,5.561522E-3,-2.6698656E-2,2.8754842E-2,6.6048745E-3,-2.5653971E-2,-5.227937E-2,-2.0805035E-2,-1.7454653E-3,-2.2424433E-2,-5.669255E-2,1.5675697E-2,-7.538983E-3,7.4219396E-3,-1.2630034E-2,6.379605E-2,1.4131599E-2,1.1116283E-2,-1.2219299E-2,3.3425394E-2,-1.7938133E-3,-1.1428598E-2,-4.2843305E-2,-3.5932893E-3,-1.100274E-2],"split_indices":[181,167,259,354,82,191,187,0,212,97,235,378,325,209,191,0,0,384,155,178,145,0,0,29,61,64,194,214,161,222,360,0,0,0,0,0,0,148,363,0,0,58,426,0,132,220,12,215,0,208,162,114,340,211,0,0,0,0,0,0,0,0,0,0,0,0,0,0,0,0,0,0,0,0,0,0,0,0,0,0,0,0,0,0,0,0,0],"split_type":[0,0,0,0,0,0,0,0,0,0,0,0,0,0,0,0,0,0,0,0,0,0,0,0,0,0,0,0,0,0,0,0,0,0,0,0,0,0,0,0,0,0,0,0,0,0,0,0,0,0,0,0,0,0,0,0,0,0,0,0,0,0,0,0,0,0,0,0,0,0,0,0,0,0,0,0,0,0,0,0,0,0,0,0,0,0,0],"sum_hessian":[4.71E2,6.5E1,4.06E2,2.6E1,3.9E1,2.36E2,1.7E2,4E0,2.2E1,3.1E1,8E0,6.8E1,1.68E2,1.02E2,6.8E1,1E0,3E0,1.4E1,8E0,5E0,2.6E1,1E0,7E0,7E0,6.1E1,2.9E1,1.39E2,2E1,8.2E1,5.9E1,9E0,1E1,4E0,3E0,5E0,2E0,3E0,1.6E1,1E1,2E0,5E0,4E1,2.1E1,1E0,2.8E1,1.15E2,2.4E1,9E0,1.1E1,5.1E1,3.1E1,3.4E1,2.5E1,6E0,3E0,1E0,1E0,4E0,1.2E1,6E0,4E0,1E0,1E0,3.5E1,5E0,1.1E1,1E1,5E0,2.3E1,7.2E1,4.3E1,1.1E1,1.3E1,7E0,2E0,3.2E1,1.9E1,3E0,2.8E1,3E0,3.1E1,5E0,2E1,1E0,5E0,2E0,1E0],"tree_param":{"num_deleted":"0","num_feature":"444","num_nodes":"87","size_leaf_vector":"1"}},{"base_weights":[2.6708462E-3,5.383175E-1,-1.1300265E-1,7.376679E-1,3.3108413E-1,-2.351281E-1,4.905006E-2,5.837942E-1,9.103999E-1,-4.1031532E-2,3.6501884E-1,-4.9236697E-1,-1.7413828E-1,8.366816E-2,-3.3772534E-1,6.399197E-1,1.734811E-2,3.194527E-2,1.0183939E0,2.8611386E-1,5.889034E-1,-2.4131492E-1,-5.9658635E-1,-8.695869E-2,-4.893317E-1,2.9515628E-2,2.5557312E-1,-4.957267E-1,-1.0890586E-1,1.1830711E-2,4.9210608E-2,8.272815E-2,2.5525268E-2,3.6278832E-1,1.5614223E-1,2.4538863E-1,7.010685E-1,-3.5717767E-1,1.3763641E-1,-6.50389E-1,-9.772214E-2,5.999362E-2,-1.6419972E-1,-5.282705E-1,-1.6549826E-2,2.3025016E-1,-1.5848408E-2,3.3655232E-1,3.2740205E-3,-4.059144E-2,-6.647984E-3,-1.8756525E-1,1.3614393E-2,7.79403E-4,3.010246E-2,1.3330117E-2,-4.671085E-3,4.8047956E-3,2.1335665E-2,6.017408E-2,2.2396864E-2,-3.205816E-2,-9.551578E-3,2.6202854E-3,1.2016784E-2,-5.5778213E-3,-5.028412E-2,-1.0971517E-2,1.7989532E-3,-1.7430254E-4,1.7815353E-2,-2.0754626E-2,-2.2527762E-3,-2.8386602E-2,-5.3455003E-2,9.135955E-3,-7.7456194E-3,4.3894146E-3,2.2986498E-2,-1.9018404E-2,1.7620219E-3,1.2542991E-2,4.112742E-2,-1.2092278E-2,1.0486151E-2,-3.4136244E-3,-1.8540874E-2],"categories":[],"categories_nodes":[],"categories_segments":[],"categories_sizes":[],"default_left":[0,0,0,0,0,0,0,0,0,0,0,0,0,0,0,0,0,0,0,0,0,0,0,0,0,0,0,0,0,0,0,0,0,0,0,0,0,0,0,0,0,0,0,0,0,0,0,0,0,0,0,0,0,0,0,0,0,0,0,0,0,0,0,0,0,0,0,0,0,0,0,0,0,0,0,0,0,0,0,0,0,0,0,0,0,0,0],"id":13,"left_children":[1,3,5,7,9,11,13,15,17,-1,19,21,23,25,27,29,-1,-1,31,33,35,37,39,41,43,45,47,49,51,-1,-1,-1,-1,53,55,57,59,61,63,65,67,69,71,73,75,77,79,81,83,-1,-1,85,-1,-1,-1,-1,-1,-1,-1,-1,-1,-1,-1,-1,-1,-1,-1,-1,-1,-1,-1,-1,-1,-1,-1,-1,-1,-1,-1,-1,-1,-1,-1,-1,-1,-1,-1],"loss_changes":[2.930601E1,3.2259827E0,7.71014E0,5.848274E-1,1.4811182E0,3.3972073E0,2.2776809E0,3.465681E-1,5.079708E-1,0E0,5.73462E-1,9.5494366E-1,4.9310446E0,1.4353653E0,4.5216548E-1,6.0754776E-2,0E0,0E0,4.281416E-1,2.7221513E-1,2.1326971E-1,6.638495E-1,7.148104E-1,1.6330078E0,7.0922947E-1,1.0872784E0,7.548444E-1,1.0018146E-1,1.9396374E-1,0E0,0E0,0E0,0E0,2.6772237E-1,7.709831E-2,1.0125071E-2,4.564619E-2,1.2319589E-1,3.681071E-3,2.5065327E-1,2.7151752E-2,5.537595E-1,1.4108195E0,7.248945E-1,6.057822E-2,2.700796E-1,9.2253125E-1,9.1244435E-1,2.4715894E-1,0E0,0E0,3.958489E-2,0E0,0E0,0E0,0E0,0E0,0E0,0E0,0E0,0E0,0E0,0E0,0E0,0E0,0E0,0E0,0E0,0E0,0E0,0E0,0E0,0E0,0E0,0E0,0E0,0E0,0E0,0E0,0E0,0E0,0E0,0E0,0E0,0E0,0E0,0E0],"parents":[2147483647,0,0,1,1,2,2,3,3,4,4,5,5,6,6,7,7,8,8,10,10,11,11,12,12,13,13,14,14,15,15,18,18,19,19,20,20,21,21,22,22,23,23,24,24,25,25,26,26,27,27,28,28,33,33,34,34,35,35,36,36,37,37,38,38,39,39,40,40,41,41,42,42,43,43,44,44,45,45,46,46,47,47,48,48,51,51],"right_children":[2,4,6,8,10,12,14,16,18,-1,20,22,24,26,28,30,-1,-1,32,34,36,38,40,42,44,46,48,50,52,-1,-1,-1,-1,54,56,58,60,62,64,66,68,70,72,74,76,78,80,82,84,-1,-1,86,-1,-1,-1,-1,-1,-1,-1,-1,-1,-1,-1,-1,-1,-1,-1,-1,-1,-1,-1,-1,-1,-1,-1,-1,-1,-1,-1,-1,-1,-1,-1,-1,-1,-1,-1],"split_conditions":[2.9585475E-1,2.4185869E-1,5.1239264E-1,4.9877807E-1,2.2042474E-1,4.3193945E-1,4.4415E-1,4.9809983E-1,1.2611267E-1,-4.1031532E-2,1.5960263E-1,1.8663996E-1,4.053505E-1,2.8699583E-1,5.080413E-1,3.709061E-1,1.734811E-2,3.194527E-2,3.1041634E-1,1.05649054E-1,3.3220342E-1,1.9463718E-1,4.7037923E-1,4.0874445E-1,2.795554E-1,4.4674867E-1,5.688686E-1,2.3119098E-1,2.8276834E-1,1.1830711E-2,4.9210608E-2,8.272815E-2,2.5525268E-2,2.6526695E-1,2.423064E-1,1.4810759E-1,3.6419663E-1,4.0609774E-1,1.5911E-1,3.0593163E-1,2.0850599E-1,3.5218006E-1,4.616561E-1,2.242545E-1,2.1489005E-1,4.5488667E-1,4.2652622E-1,5.530556E-1,5.6408125E-1,-4.059144E-2,-6.647984E-3,2.2812651E-1,1.3614393E-2,7.79403E-4,3.010246E-2,1.3330117E-2,-4.671085E-3,4.8047956E-3,2.1335665E-2,6.017408E-2,2.2396864E-2,-3.205816E-2,-9.551578E-3,2.6202854E-3,1.2016784E-2,-5.5778213E-3,-5.028412E-2,-1.0971517E-2,1.7989532E-3,-1.7430254E-4,1.7815353E-2,-2.0754626E-2,-2.2527762E-3,-2.8386602E-2,-5.3455003E-2,9.135955E-3,-7.7456194E-3,4.3894146E-3,2.2986498E-2,-1.9018404E-2,1.7620219E-3,1.2542991E-2,4.112742E-2,-1.2092278E-2,1.0486151E-2,-3.4136244E-3,-1.8540874E-2],"split_indices":[184,172,258,344,143,221,185,340,9,0,4,63,192,37,428,231,0,0,135,0,141,85,407,204,77,207,361,0,58,0,0,0,0,159,25,0,125,416,0,172,0,155,214,69,28,211,203,281,425,0,0,0,0,0,0,0,0,0,0,0,0,0,0,0,0,0,0,0,0,0,0,0,0,0,0,0,0,0,0,0,0,0,0,0,0,0,0],"split_type":[0,0,0,0,0,0,0,0,0,0,0,0,0,0,0,0,0,0,0,0,0,0,0,0,0,0,0,0,0,0,0,0,0,0,0,0,0,0,0,0,0,0,0,0,0,0,0,0,0,0,0,0,0,0,0,0,0,0,0,0,0,0,0,0,0,0,0,0,0,0,0,0,0,0,0,0,0,0,0,0,0,0,0,0,0,0,0],"sum_hessian":[4.71E2,8.3E1,3.88E2,4.1E1,4.2E1,2.21E2,1.67E2,2.4E1,1.7E1,1E0,4.1E1,4.1E1,1.8E2,1.54E2,1.3E1,2E1,4E0,4E0,1.3E1,3.2E1,9E0,1.3E1,2.8E1,1.42E2,3.8E1,1.18E2,3.6E1,7E0,6E0,1E0,1.9E1,1.1E1,2E0,1.9E1,1.3E1,3E0,6E0,1E1,3E0,2.5E1,3E0,4.9E1,9.3E1,3.5E1,3E0,2.1E1,9.7E1,2.7E1,9E0,6E0,1E0,5E0,1E0,2E0,1.7E1,1.2E1,1E0,1E0,2E0,4E0,2E0,7E0,3E0,1E0,2E0,1E0,2.4E1,2E0,1E0,3.7E1,1.2E1,5E1,4.3E1,2.1E1,1.4E1,1E0,2E0,7E0,1.4E1,1.3E1,8.4E1,1.6E1,1.1E1,4E0,5E0,2E0,3E0],"tree_param":{"num_deleted":"0","num_feature":"444","num_nodes":"87","size_leaf_vector":"1"}},{"base_weights":[2.7980532E-3,5.7993674E-1,-9.079888E-2,7.742646E-1,4.3426704E-1,-4.0214416E-1,-4.203177E-2,3.8555607E-1,8.2510275E-1,3.4340513E-1,8.1355804E-1,1.1692669E-2,-4.8336643E-1,6.977092E-2,-1.8530081E-1,6.1428356E-3,3.3074465E-2,9.332836E-1,5.5312324E-1,3.9469263E-1,2.0028651E-1,1.7432105E-2,6.537563E-2,1.4298229E-2,-9.2235066E-2,-6.7283976E-1,-3.8833636E-1,-5.3471476E-3,1.7481962E-1,-3.6417735E-1,-5.885083E-2,9.859995E-1,7.32227E-3,2.0936167E-2,4.8268925E-2,2.3066165E-1,4.4866645E-1,7.1728274E-2,2.3952982E-1,-9.472992E-3,4.2072716E-3,2.5220246E-3,-5.473275E-2,-1.5241508E-1,-5.340645E-1,2.3328453E-1,-7.272841E-2,6.0256265E-2,1.4937997E-1,-2.8129336E-1,-5.9524846E-1,-1.24702975E-2,-3.163659E-1,3.6130093E-2,8.097993E-2,2.5721272E-2,2.447659E-3,1.7738305E-2,3.880166E-2,1.038771E-3,6.480314E-3,2.2131449E-2,8.265165E-3,-2.9930025E-2,-1.038571E-3,-4.367239E-2,-1.4666508E-2,1.309894E-2,2.9971184E-2,-2.3849247E-2,-3.172694E-3,3.2598567E-3,1.748597E-2,-3.86747E-2,-9.643025E-3,-4.6745628E-2,-6.5568644E-3,-3.5101897E-3,2.6051046E-2,-3.483391E-2,-7.6447027E-3],"categories":[],"categories_nodes":[],"categories_segments":[],"categories_sizes":[],"default_left":[0,0,0,0,0,0,0,0,0,0,0,0,0,0,0,0,0,0,0,0,0,0,0,0,0,0,0,0,0,0,0,0,0,0,0,0,0,0,0,0,0,0,0,0,0,0,0,0,0,0,0,0,0,0,0,0,0,0,0,0,0,0,0,0,0,0,0,0,0,0,0,0,0,0,0,0,0,0,0,0,0],"id":14,"left_children":[1,3,5,7,9,11,13,15,17,19,21,23,25,27,29,-1,-1,31,33,35,37,-1,-1,-1,39,41,43,45,47,49,51,53,-1,-1,-1,55,57,59,61,-1,-1,-1,-1,63,65,67,69,-1,71,73,75,77,79,-1,-1,-1,-1,-1,-1,-1,-1,-1,-1,-1,-1,-1,-1,-1,-1,-1,-1,-1,-1,-1,-1,-1,-1,-1,-1,-1,-1],"loss_changes":[2.5549349E1,1.5320683E0,6.162746E0,2.1543121E-1,1.099144E0,1.8543539E0,5.667234E0,4.804808E-2,1.605072E-1,1.7051506E-1,3.3813E-2,2.0356303E-1,5.6697273E-1,1.5712547E0,3.4845033E0,0E0,0E0,5.645199E-1,4.340291E-2,1.08991146E-1,3.831449E-2,0E0,0E0,0E0,4.246267E-2,5.876107E-1,1.0531521E0,1.8982451E0,1.2072628E0,1.0582943E0,1.0948739E0,1.4158058E-1,0E0,0E0,0E0,1.666964E-1,1.253767E-1,2.2009257E-3,2.4960428E-2,0E0,0E0,0E0,0E0,4.7296485E-1,2.1268511E-1,1.8376672E-1,6.730783E-1,0E0,7.085085E-1,1.6875472E0,1.732316E-1,9.921705E-1,3.9723003E-1,0E0,0E0,0E0,0E0,0E0,0E0,0E0,0E0,0E0,0E0,0E0,0E0,0E0,0E0,0E0,0E0,0E0,0E0,0E0,0E0,0E0,0E0,0E0,0E0,0E0,0E0,0E0,0E0],"parents":[2147483647,0,0,1,1,2,2,3,3,4,4,5,5,6,6,7,7,8,8,9,9,10,10,11,11,12,12,13,13,14,14,17,17,18,18,19,19,20,20,24,24,25,25,26,26,27,27,28,28,29,29,30,30,31,31,35,35,36,36,37,37,38,38,43,43,44,44,45,45,46,46,48,48,49,49,50,50,51,51,52,52],"right_children":[2,4,6,8,10,12,14,16,18,20,22,24,26,28,30,-1,-1,32,34,36,38,-1,-1,-1,40,42,44,46,48,50,52,54,-1,-1,-1,56,58,60,62,-1,-1,-1,-1,64,66,68,70,-1,72,74,76,78,80,-1,-1,-1,-1,-1,-1,-1,-1,-1,-1,-1,-1,-1,-1,-1,-1,-1,-1,-1,-1,-1,-1,-1,-1,-1,-1,-1,-1],"split_conditions":[2.4863596E-1,2.3800078E-1,4.505451E-1,4.3585876E-1,1.8419258E-1,1.8320958E-1,3.791816E-1,7.558909E-2,4.5848626E-1,3.9829606E-1,4.5809776E-1,8.540633E-2,4.1435996E-1,2.1207927E-1,5.1557493E-1,6.1428356E-3,3.3074465E-2,4.808432E-1,4.905106E-1,2.786113E-1,3.99279E-1,1.7432105E-2,6.537563E-2,1.4298229E-2,1.7918189E-1,1.6428792E-1,3.731785E-1,3.1669146E-1,2.1317963E-1,4.2801866E-1,4.4415E-1,4.7000265E-1,7.32227E-3,2.0936167E-2,4.8268925E-2,2.5540474E-1,3.8042122E-1,6.74419E-2,2.7190235E-1,-9.472992E-3,4.2072716E-3,2.5220246E-3,-5.473275E-2,3.734932E-1,4.691091E-1,3.546373E-1,1.9274294E-1,6.0256265E-2,5.2731943E-1,2.3211725E-1,2.638439E-1,4.4548577E-1,5.080413E-1,3.6130093E-2,8.097993E-2,2.5721272E-2,2.447659E-3,1.7738305E-2,3.880166E-2,1.038771E-3,6.480314E-3,2.2131449E-2,8.265165E-3,-2.9930025E-2,-1.038571E-3,-4.367239E-2,-1.4666508E-2,1.309894E-2,2.9971184E-2,-2.3849247E-2,-3.172694E-3,3.2598567E-3,1.748597E-2,-3.86747E-2,-9.643025E-3,-4.6745628E-2,-6.5568644E-3,-3.5101897E-3,2.6051046E-2,-3.483391E-2,-7.6447027E-3],"split_indices":[181,167,236,354,9,73,189,0,230,213,235,0,353,13,311,0,0,431,239,148,212,0,0,0,58,12,201,185,21,186,185,351,0,0,0,160,416,0,171,0,0,0,0,433,406,154,84,0,331,100,64,177,428,0,0,0,0,0,0,0,0,0,0,0,0,0,0,0,0,0,0,0,0,0,0,0,0,0,0,0,0],"split_type":[0,0,0,0,0,0,0,0,0,0,0,0,0,0,0,0,0,0,0,0,0,0,0,0,0,0,0,0,0,0,0,0,0,0,0,0,0,0,0,0,0,0,0,0,0,0,0,0,0,0,0,0,0,0,0,0,0,0,0,0,0,0,0,0,0,0,0,0,0,0,0,0,0,0,0,0,0,0,0,0,0],"sum_hessian":[4.71E2,6.5E1,4.06E2,2.6E1,3.9E1,5.4E1,3.52E2,4E0,2.2E1,3.3E1,6E0,9E0,4.5E1,1.98E2,1.54E2,1E0,3E0,1.4E1,8E0,2.3E1,1E1,1E0,5E0,3E0,6E0,1.3E1,3.2E1,1.16E2,8.2E1,6.3E1,9.1E1,1.3E1,1E0,3E0,5E0,7E0,1.6E1,3E0,7E0,5E0,1E0,1E0,1.2E1,1.3E1,1.9E1,2.5E1,9.1E1,2E0,8E1,4.8E1,1.5E1,7.8E1,1.3E1,3E0,1E1,4E0,3E0,5E0,1.1E1,1E0,2E0,4E0,3E0,4E0,9E0,1.6E1,3E0,2E1,5E0,9E0,8.2E1,3.6E1,4.4E1,1.8E1,3E1,1.4E1,1E0,7.2E1,6E0,7E0,6E0],"tree_param":{"num_deleted":"0","num_feature":"444","num_nodes":"81","size_leaf_vector":"1"}},{"base_weights":[3.184162E-3,5.430822E-1,-8.4374696E-2,4.2779952E-1,7.6974505E-1,-3.7439218E-1,-3.894881E-2,4.9415267E-1,1.717529E-1,8.5423276E-2,5.8317405E-1,1.1718977E-2,-4.5019042E-1,6.5025784E-2,-1.7218749E-1,2.2250548E-1,5.410653E-1,9.998169E-4,1.8626201E-1,2.7635223E-1,5.5472393E-2,1.3493954E-2,-8.606967E-2,-6.261061E-1,-3.619174E-1,2.6666355E-1,3.0449638E-2,-3.3845186E-1,-5.4653727E-2,-1.9908697E-5,1.9475866E-2,7.606336E-1,4.6672624E-1,1.4732108E-2,3.5537707E-3,2.2720287E-2,4.381603E-3,-8.88093E-3,4.049499E-3,2.4274485E-3,-5.094356E-2,-1.4319599E-1,-4.9692655E-1,1.4029942E-1,4.3398777E-1,-6.155759E-2,1.435696E-1,-2.2877678E-1,-4.8994708E-1,-1.8132376E-2,-3.5231557E-1,1.3825711E-2,6.292674E-2,1.9234372E-2,4.2673003E-2,-2.8134223E-2,-9.684675E-4,-8.071956E-3,-4.006522E-2,2.3003548E-2,2.3649496E-3,1.3498143E-2,4.0387288E-2,-2.2239422E-2,-2.5139959E-3,5.724345E-2,8.765121E-3,-3.3589896E-2,-6.6129477E-3,-2.109396E-2,-4.865538E-2,-3.715131E-3,2.4741577E-2,-3.195682E-2,-2.8607082E-3],"categories":[],"categories_nodes":[],"categories_segments":[],"categories_sizes":[],"default_left":[0,0,0,0,0,0,0,0,0,0,0,0,0,0,0,0,0,0,0,0,0,0,0,0,0,0,0,0,0,0,0,0,0,0,0,0,0,0,0,0,0,0,0,0,0,0,0,0,0,0,0,0,0,0,0,0,0,0,0,0,0,0,0,0,0,0,0,0,0,0,0,0,0,0,0],"id":15,"left_children":[1,3,5,7,9,11,13,15,17,-1,19,21,23,25,27,29,31,-1,33,35,-1,-1,37,39,41,43,45,47,49,-1,-1,51,53,-1,-1,-1,-1,-1,-1,-1,-1,55,57,59,61,63,65,67,69,71,73,-1,-1,-1,-1,-1,-1,-1,-1,-1,-1,-1,-1,-1,-1,-1,-1,-1,-1,-1,-1,-1,-1,-1,-1],"loss_changes":[2.2358608E1,1.3953037E0,5.347358E0,6.966448E-1,7.824249E-1,1.6149359E0,4.90146E0,3.3838177E-1,2.280116E-2,0E0,5.636759E-1,1.799665E-1,4.8771667E-1,1.3792796E0,3.0104623E0,5.803594E-2,1.346674E-1,0E0,4.8110485E-3,2.2857726E-2,0E0,0E0,3.8103607E-2,5.118742E-1,9.033117E-1,5.522814E-1,1.7885809E0,9.5128727E-1,9.9374497E-1,0E0,0E0,1.16383076E-1,3.9156437E-1,0E0,0E0,0E0,0E0,0E0,0E0,0E0,0E0,4.1818234E-1,2.3273993E-1,3.1613517E-1,2.2164416E-1,6.159158E-1,1.1848562E0,1.1618958E0,6.791501E-1,9.2342895E-1,2.155298E-1,0E0,0E0,0E0,0E0,0E0,0E0,0E0,0E0,0E0,0E0,0E0,0E0,0E0,0E0,0E0,0E0,0E0,0E0,0E0,0E0,0E0,0E0,0E0,0E0],"parents":[2147483647,0,0,1,1,2,2,3,3,4,4,5,5,6,6,7,7,8,8,10,10,11,11,12,12,13,13,14,14,15,15,16,16,18,18,19,19,22,22,23,23,24,24,25,25,26,26,27,27,28,28,31,31,32,32,41,41,42,42,43,43,44,44,45,45,46,46,47,47,48,48,49,49,50,50],"right_children":[2,4,6,8,10,12,14,16,18,-1,20,22,24,26,28,30,32,-1,34,36,-1,-1,38,40,42,44,46,48,50,-1,-1,52,54,-1,-1,-1,-1,-1,-1,-1,-1,56,58,60,62,64,66,68,70,72,74,-1,-1,-1,-1,-1,-1,-1,-1,-1,-1,-1,-1,-1,-1,-1,-1,-1,-1,-1,-1,-1,-1,-1,-1],"split_conditions":[2.4863596E-1,5.0377625E-1,4.505451E-1,4.5144916E-1,4.4502395E-1,1.8320958E-1,3.791816E-1,4.3650866E-1,6.74419E-2,8.5423276E-2,5.263104E-1,8.540633E-2,4.1435996E-1,3.1229725E-1,5.1557493E-1,7.524129E-2,1.6357188E-1,9.998169E-4,2.5158358E-1,3.412273E-1,5.5472393E-2,1.3493954E-2,1.7918189E-1,1.6428792E-1,3.731785E-1,4.4741756E-1,2.1207927E-1,4.2023093E-1,4.6721312E-1,-1.9908697E-5,1.9475866E-2,6.887362E-2,2.6672322E-1,1.4732108E-2,3.5537707E-3,2.2720287E-2,4.381603E-3,-8.88093E-3,4.049499E-3,2.4274485E-3,-5.094356E-2,3.734932E-1,3.7477994E-1,4.7611183E-1,1.601809E-1,1.9274294E-1,2.1317963E-1,3.1741318E-1,2.0203252E-1,4.7656167E-1,5.610082E-1,1.3825711E-2,6.292674E-2,1.9234372E-2,4.2673003E-2,-2.8134223E-2,-9.684675E-4,-8.071956E-3,-4.006522E-2,2.3003548E-2,2.3649496E-3,1.3498143E-2,4.0387288E-2,-2.2239422E-2,-2.5139959E-3,5.724345E-2,8.765121E-3,-3.3589896E-2,-6.6129477E-3,-2.109396E-2,-4.865538E-2,-3.715131E-3,2.4741577E-2,-3.195682E-2,-2.8607082E-3],"split_indices":[181,283,236,224,227,73,189,268,0,0,283,0,353,189,311,0,98,0,177,79,0,0,58,12,201,215,13,194,191,0,0,24,130,0,0,0,0,0,0,0,0,433,438,278,5,84,21,145,12,137,231,0,0,0,0,0,0,0,0,0,0,0,0,0,0,0,0,0,0,0,0,0,0,0,0],"split_type":[0,0,0,0,0,0,0,0,0,0,0,0,0,0,0,0,0,0,0,0,0,0,0,0,0,0,0,0,0,0,0,0,0,0,0,0,0,0,0,0,0,0,0,0,0,0,0,0,0,0,0,0,0,0,0,0,0,0,0,0,0,0,0,0,0,0,0,0,0,0,0,0,0,0,0],"sum_hessian":[4.71E2,6.5E1,4.06E2,4.5E1,2E1,5.4E1,3.52E2,3.5E1,1E1,5E0,1.5E1,9E0,4.5E1,1.98E2,1.54E2,6E0,2.9E1,1E0,9E0,6E0,9E0,3E0,6E0,1.3E1,3.2E1,2.8E1,1.7E2,6.3E1,9.1E1,1E0,5E0,5E0,2.4E1,8E0,1E0,5E0,1E0,5E0,1E0,1E0,1.2E1,1.3E1,1.9E1,1.7E1,1.1E1,9.4E1,7.6E1,3.8E1,2.5E1,8.2E1,9E0,1E0,4E0,9E0,1.5E1,4E0,9E0,2E0,1.7E1,6E0,1.1E1,4E0,7E0,9E0,8.5E1,2E0,7.4E1,1.4E1,2.4E1,1.2E1,1.3E1,7.6E1,6E0,7E0,2E0],"tree_param":{"num_deleted":"0","num_feature":"444","num_nodes":"75","size_leaf_vector":"1"}},{"base_weights":[3.4221967E-3,5.0758433E-1,-7.834224E-2,3.9957112E-1,7.200141E-1,-4.026919E-1,-4.2873953E-2,4.6148333E-1,1.6062467E-1,8.0084324E-2,5.445969E-1,-1.6583954E-1,-5.2384937E-1,5.4375254E-2,-1.6963777E-1,3.1971458E-1,5.589126E-1,9.6232357E-4,1.7412093E-1,2.877203E-1,7.124209E-1,-2.508791E-1,1.307391E-1,-4.6083692E-2,-2.8444415E-1,-3.8890701E-3,1.6529334E-1,-3.257568E-1,-5.0704606E-2,3.3919647E-1,3.0016826E-4,5.794499E-1,6.326397E-3,1.4917488E-2,6.542072E-3,2.3456799E-2,4.217293E-3,2.283315E-2,5.8912095E-2,-3.6185574E-2,-3.537027E-1,2.3364192E-3,1.1516297E-2,3.5527735E-3,-5.155522E-1,1.1176691E-1,-9.167983E-2,2.637845E-1,1.1005934E-3,-3.7727177E-1,-7.482523E-2,-1.651912E-2,-3.2937366E-1,1.1158278E-2,2.9270364E-2,5.915113E-2,3.5330694E-2,9.336768E-3,-8.060781E-3,-3.5202645E-2,-1.4282207E-2,-1.2936911E-2,1.3381007E-2,-1.16461655E-2,-4.250994E-2,3.2258213E-3,1.6537823E-2,-5.282553E-3,-4.5482144E-2,1.3335772E-2,4.409436E-2,-8.0464855E-3,1.8137883E-2,-2.3201656E-2,-5.2883968E-2,1.3768942E-3,-2.9366812E-2,-3.440115E-3,2.3151046E-2,-3.172252E-2,-6.2431535E-3],"categories":[],"categories_nodes":[],"categories_segments":[],"categories_sizes":[],"default_left":[0,0,0,0,0,0,0,0,0,0,0,0,0,0,0,0,0,0,0,0,0,0,0,0,0,0,0,0,0,0,0,0,0,0,0,0,0,0,0,0,0,0,0,0,0,0,0,0,0,0,0,0,0,0,0,0,0,0,0,0,0,0,0,0,0,0,0,0,0,0,0,0,0,0,0,0,0,0,0,0,0],"id":16,"left_children":[1,3,5,7,9,11,13,15,17,-1,19,21,23,25,27,29,31,-1,33,35,37,39,41,-1,43,45,47,49,51,53,-1,55,-1,-1,-1,-1,-1,-1,-1,57,59,-1,-1,61,63,65,67,69,71,73,75,77,79,-1,-1,-1,-1,-1,-1,-1,-1,-1,-1,-1,-1,-1,-1,-1,-1,-1,-1,-1,-1,-1,-1,-1,-1,-1,-1,-1,-1],"loss_changes":[1.9496801E1,1.2266884E0,4.664914E0,6.0638475E-1,6.996107E-1,1.0609827E0,4.54581E0,3.1855488E-1,1.9707143E-2,0E0,4.8478317E-1,4.1111344E-1,3.891654E-1,1.3513192E0,2.954319E0,1.0320377E-1,1.4604616E-1,0E0,4.1816533E-3,2.8779984E-2,2.9174805E-2,2.521078E-1,4.303463E-3,0E0,6.008574E-1,1.4114333E0,1.1640605E0,8.637152E-1,8.7099123E-1,9.754765E-2,0E0,5.9301853E-2,0E0,0E0,0E0,0E0,0E0,0E0,0E0,7.0653945E-2,6.169963E-2,0E0,0E0,1.8469153E-1,4.299879E-3,4.3909645E-1,8.212501E-1,1.149508E0,7.565463E-1,1.0510426E0,3.9087456E-1,8.0633646E-1,1.9515407E-1,0E0,0E0,0E0,0E0,0E0,0E0,0E0,0E0,0E0,0E0,0E0,0E0,0E0,0E0,0E0,0E0,0E0,0E0,0E0,0E0,0E0,0E0,0E0,0E0,0E0,0E0,0E0,0E0],"parents":[2147483647,0,0,1,1,2,2,3,3,4,4,5,5,6,6,7,7,8,8,10,10,11,11,12,12,13,13,14,14,15,15,16,16,18,18,19,19,20,20,21,21,22,22,24,24,25,25,26,26,27,27,28,28,29,29,31,31,39,39,40,40,43,43,44,44,45,45,46,46,47,47,48,48,49,49,50,50,51,51,52,52],"right_children":[2,4,6,8,10,12,14,16,18,-1,20,22,24,26,28,30,32,-1,34,36,38,40,42,-1,44,46,48,50,52,54,-1,56,-1,-1,-1,-1,-1,-1,-1,58,60,-1,-1,62,64,66,68,70,72,74,76,78,80,-1,-1,-1,-1,-1,-1,-1,-1,-1,-1,-1,-1,-1,-1,-1,-1,-1,-1,-1,-1,-1,-1,-1,-1,-1,-1,-1,-1],"split_conditions":[2.4863596E-1,5.0377625E-1,4.3377316E-1,4.5144916E-1,4.4502395E-1,1.8663996E-1,3.791816E-1,4.1997302E-1,6.74419E-2,8.0084324E-2,5.2314585E-1,1.9463718E-1,4.0853333E-1,5.2557063E-1,5.1557493E-1,3.171593E-1,4.910478E-1,9.6232357E-4,5.0721353E-1,3.412273E-1,1.205198E-1,1.8146496E-1,1.5911E-1,-4.6083692E-2,3.700625E-1,3.3895034E-1,5.291615E-1,2.8614998E-1,4.6721312E-1,1.6334036E-1,3.0016826E-4,7.690896E-2,6.326397E-3,1.4917488E-2,6.542072E-3,2.3456799E-2,4.217293E-3,2.283315E-2,5.8912095E-2,8.540633E-2,1.8607976E-1,2.3364192E-3,1.1516297E-2,2.0220147E-1,1.7988661E-1,2.1469852E-1,5.243325E-1,5.278627E-1,5.5421686E-1,2.3691449E-1,5.0314087E-1,4.7656167E-1,5.524226E-1,1.1158278E-2,2.9270364E-2,5.915113E-2,3.5330694E-2,9.336768E-3,-8.060781E-3,-3.5202645E-2,-1.4282207E-2,-1.2936911E-2,1.3381007E-2,-1.16461655E-2,-4.250994E-2,3.2258213E-3,1.6537823E-2,-5.282553E-3,-4.5482144E-2,1.3335772E-2,4.409436E-2,-8.0464855E-3,1.8137883E-2,-2.3201656E-2,-5.2883968E-2,1.3768942E-3,-2.9366812E-2,-3.440115E-3,2.3151046E-2,-3.172252E-2,-6.2431535E-3],"split_indices":[181,283,229,224,227,63,189,406,0,0,286,85,440,328,311,141,367,0,255,79,0,66,0,0,199,187,418,89,191,89,0,0,0,0,0,0,0,0,0,0,75,0,0,1,0,54,301,386,417,74,257,137,360,0,0,0,0,0,0,0,0,0,0,0,0,0,0,0,0,0,0,0,0,0,0,0,0,0,0,0,0],"split_type":[0,0,0,0,0,0,0,0,0,0,0,0,0,0,0,0,0,0,0,0,0,0,0,0,0,0,0,0,0,0,0,0,0,0,0,0,0,0,0,0,0,0,0,0,0,0,0,0,0,0,0,0,0,0,0,0,0,0,0,0,0,0,0,0,0,0,0,0,0,0,0,0,0,0,0,0,0,0,0,0,0],"sum_hessian":[4.71E2,6.5E1,4.06E2,4.5E1,2E1,3.9E1,3.67E2,3.5E1,1E1,5E0,1.5E1,1.4E1,2.5E1,2.08E2,1.59E2,1.6E1,1.9E1,1E0,9E0,7E0,8E0,1.1E1,3E0,1.7E1,8E0,1.37E2,7.1E1,6.8E1,9.1E1,1.5E1,1E0,1.8E1,1E0,6E0,3E0,6E0,1E0,2E0,6E0,4E0,7E0,1E0,2E0,4E0,4E0,5.9E1,7.8E1,4.4E1,2.7E1,5.6E1,1.2E1,8.2E1,9E0,4E0,1.1E1,4E0,1.4E1,1E0,3E0,3E0,4E0,2E0,2E0,1E0,3E0,3.7E1,2.2E1,7.6E1,2E0,3.6E1,8E0,1.9E1,8E0,4.8E1,8E0,1E1,2E0,7.6E1,6E0,6E0,3E0],"tree_param":{"num_deleted":"0","num_feature":"444","num_nodes":"81","size_leaf_vector":"1"}},{"base_weights":[3.4483732E-3,4.126612E-1,-8.492521E-2,6.384213E-1,3.0045113E-1,-2.5096807E-1,-1.1700035E-2,4.67788E-1,7.4374205E-1,2.3534662E-1,6.2875944E-1,-1.7020553E-1,-4.1227052E-1,4.4872884E-2,-1.953792E-1,5.278297E-2,2.3232585E-1,7.02057E-2,4.5844027E-1,2.5854516E-1,-3.3801846E-2,1.4080525E-2,6.604193E-1,-3.442013E-1,-4.341258E-2,-4.3900377E-1,5.4862887E-2,4.9981363E-3,2.1753529E-1,-3.9918894E-1,-1.0045534E-1,1.961195E-2,7.2412747E-3,9.0234075E-3,4.1332323E-2,3.2072932E-1,1.7430529E-1,5.5050142E-2,2.1983575E-2,-1.8393023E-1,-4.3465814E-1,1.7564876E-2,-6.0573887E-2,-3.6601254E-1,-4.93384E-2,6.4167776E-3,-2.4470242E-4,3.2977098E-1,-1.5205135E-2,5.259134E-1,1.07491404E-1,-4.611167E-2,-5.4721403E-1,1.7553474E-1,-1.6487306E-1,1.87071E-2,3.1274904E-2,4.4462252E-3,2.207961E-2,-2.094962E-2,9.329763E-3,-4.0087864E-2,-1.1895522E-2,-6.935806E-3,6.064523E-3,-3.0981878E-2,3.2456121E-3,3.685204E-2,1.7096516E-2,-6.426333E-3,7.1842056E-3,1.1049585E-2,6.562751E-2,-1.1364432E-2,1.44683095E-2,6.9191502E-3,-8.993216E-3,-9.661053E-3,-4.2711742E-2,-1.5530378E-3,4.3119073E-2,-2.5616016E-2,-1.0500229E-3],"categories":[],"categories_nodes":[],"categories_segments":[],"categories_sizes":[],"default_left":[0,0,0,0,0,0,0,0,0,0,0,0,0,0,0,0,0,0,0,0,0,0,0,0,0,0,0,0,0,0,0,0,0,0,0,0,0,0,0,0,0,0,0,0,0,0,0,0,0,0,0,0,0,0,0,0,0,0,0,0,0,0,0,0,0,0,0,0,0,0,0,0,0,0,0,0,0,0,0,0,0,0,0],"id":17,"left_children":[1,3,5,7,9,11,13,15,17,19,21,23,25,27,29,-1,31,-1,33,35,-1,-1,37,39,41,43,45,47,49,51,53,-1,-1,-1,-1,55,57,-1,-1,59,61,-1,63,65,-1,-1,-1,67,69,71,73,75,77,79,81,-1,-1,-1,-1,-1,-1,-1,-1,-1,-1,-1,-1,-1,-1,-1,-1,-1,-1,-1,-1,-1,-1,-1,-1,-1,-1,-1,-1],"loss_changes":[1.7104267E1,1.9361191E0,4.726727E0,1.3730907E-1,1.0917363E0,1.4800649E0,2.8248005E0,5.588472E-1,3.939638E-1,9.122784E-1,1.6758442E-3,1.7720337E0,5.11117E-1,1.4309657E0,1.1980693E0,0E0,6.433904E-3,0E0,1.843369E-1,2.007761E-1,0E0,0E0,1.0716915E-3,4.1297245E-1,2.4286631E-1,3.5023975E-1,5.6314915E-3,1.1204648E0,1.2669386E0,1.0200529E0,8.2898027E-1,0E0,0E0,0E0,0E0,8.1320524E-2,3.002457E-1,0E0,0E0,4.465405E-1,4.940424E-1,0E0,2.1504119E-1,5.9594345E-1,0E0,0E0,0E0,5.2518964E-2,1.2676811E0,1.1928017E0,6.9298357E-1,8.2540624E-2,5.7124615E-2,7.172918E-1,9.8146296E-1,0E0,0E0,0E0,0E0,0E0,0E0,0E0,0E0,0E0,0E0,0E0,0E0,0E0,0E0,0E0,0E0,0E0,0E0,0E0,0E0,0E0,0E0,0E0,0E0,0E0,0E0,0E0,0E0],"parents":[2147483647,0,0,1,1,2,2,3,3,4,4,5,5,6,6,7,7,8,8,9,9,10,10,11,11,12,12,13,13,14,14,16,16,18,18,19,19,22,22,23,23,24,24,25,25,26,26,27,27,28,28,29,29,30,30,35,35,36,36,39,39,40,40,42,42,43,43,47,47,48,48,49,49,50,50,51,51,52,52,53,53,54,54],"right_children":[2,4,6,8,10,12,14,16,18,20,22,24,26,28,30,-1,32,-1,34,36,-1,-1,38,40,42,44,46,48,50,52,54,-1,-1,-1,-1,56,58,-1,-1,60,62,-1,64,66,-1,-1,-1,68,70,72,74,76,78,80,82,-1,-1,-1,-1,-1,-1,-1,-1,-1,-1,-1,-1,-1,-1,-1,-1,-1,-1,-1,-1,-1,-1,-1,-1,-1,-1,-1,-1],"split_conditions":[2.9585475E-1,2.3800078E-1,4.939766E-1,2.3841892E-1,1.8419258E-1,3.710963E-1,4.0722972E-1,1.8241623E-1,3.4456474E-1,1.5846662E-1,4.5809776E-1,4.0710765E-1,4.1655424E-1,5.399341E-1,5.1781654E-1,5.278297E-2,2.302808E-1,7.02057E-2,1.1620166E-1,4.810404E-1,-3.3801846E-2,1.4080525E-2,3.4270042E-1,1.8663996E-1,4.4045764E-1,2.3246554E-1,1.625891E-1,4.983688E-1,5.346378E-1,4.8309726E-1,5.336639E-1,1.961195E-2,7.2412747E-3,9.0234075E-3,4.1332323E-2,4.457726E-1,4.8707658E-1,5.5050142E-2,2.1983575E-2,1.9463718E-1,1.965599E-1,1.7564876E-2,4.9274293E-1,2.2560115E-1,-4.93384E-2,6.4167776E-3,-2.4470242E-4,4.9618518E-1,2.1298324E-1,5.4192555E-1,5.5631375E-1,4.267277E-1,1.6559905E-1,5.247613E-1,5.3803116E-1,1.87071E-2,3.1274904E-2,4.4462252E-3,2.207961E-2,-2.094962E-2,9.329763E-3,-4.0087864E-2,-1.1895522E-2,-6.935806E-3,6.064523E-3,-3.0981878E-2,3.2456121E-3,3.685204E-2,1.7096516E-2,-6.426333E-3,7.1842056E-3,1.1049585E-2,6.562751E-2,-1.1364432E-2,1.44683095E-2,6.9191502E-3,-8.993216E-3,-9.661053E-3,-4.2711742E-2,-1.5530378E-3,4.3119073E-2,-2.5616016E-2,-1.0500229E-3],"split_indices":[184,167,270,93,9,189,185,107,212,0,235,210,157,235,261,0,202,0,0,264,0,0,147,63,377,72,0,337,371,398,343,0,0,0,0,340,363,0,0,85,0,0,286,71,0,0,0,295,10,352,314,189,0,217,404,0,0,0,0,0,0,0,0,0,0,0,0,0,0,0,0,0,0,0,0,0,0,0,0,0,0,0,0],"split_type":[0,0,0,0,0,0,0,0,0,0,0,0,0,0,0,0,0,0,0,0,0,0,0,0,0,0,0,0,0,0,0,0,0,0,0,0,0,0,0,0,0,0,0,0,0,0,0,0,0,0,0,0,0,0,0,0,0,0,0,0,0,0,0,0,0,0,0,0,0,0,0,0,0,0,0,0,0,0,0,0,0,0,0],"sum_hessian":[4.71E2,8.3E1,3.88E2,2.6E1,5.7E1,1.18E2,2.7E2,1.2E1,1.4E1,4.9E1,8E0,8E1,3.8E1,2.07E2,6.3E1,5E0,7E0,7E0,7E0,4.8E1,1E0,1E0,7E0,3.3E1,4.7E1,3.6E1,2E0,1.69E2,3.8E1,1.9E1,4.4E1,5E0,2E0,2E0,5E0,2.6E1,2.2E1,5E0,2E0,1.3E1,2E1,2E0,4.5E1,2.9E1,7E0,1E0,1E0,9E0,1.6E2,9E0,2.9E1,6E0,1.3E1,8E0,3.6E1,1.7E1,9E0,1.2E1,1E1,1E1,3E0,1.4E1,6E0,3.7E1,8E0,2.6E1,3E0,2E0,7E0,9.8E1,6.2E1,5E0,4E0,7E0,2.2E1,2E0,4E0,1E0,1.2E1,6E0,2E0,1.6E1,2E1],"tree_param":{"num_deleted":"0","num_feature":"444","num_nodes":"83","size_leaf_vector":"1"}},{"base_weights":[3.8489532E-3,4.447563E-1,-6.765899E-2,5.937291E-1,3.2639748E-1,-3.0426916E-1,-3.0601716E-2,3.8381314E-1,6.5850484E-1,2.36791E-1,4.490817E-2,1.5182299E-2,-3.671006E-1,2.4393324E-2,-1.9902785E-1,4.7785252E-1,1.1010057E-2,7.855345E-1,4.1596472E-1,7.183858E-2,2.657496E-1,1.1386612E-2,-6.506614E-2,-5.1887035E-1,-2.9158914E-1,-3.6783572E-2,1.2692657E-1,-3.648634E-1,-8.5758574E-2,8.262538E-3,3.9701715E-2,6.321326E-2,5.817611E-3,1.5398527E-2,3.6530346E-2,-2.1983191E-2,1.2974106E-2,3.035894E-1,8.9018755E-2,-7.038876E-3,4.0367674E-3,1.8989373E-3,-4.2200908E-2,-1.0952259E-1,-4.0445626E-1,1.05834186E-1,-1.05267726E-1,2.1074547E-1,-4.070395E-3,-2.5685927E-1,-5.085225E-1,-5.414819E-2,-3.4458652E-2,7.595033E-4,-2.7046548E-3,2.6780618E-2,1.2903084E-2,4.2929203E-4,9.692641E-3,-1.54936155E-2,7.987486E-3,-4.909965E-3,-3.2886364E-2,1.5509742E-2,2.8044616E-3,-6.7108213E-3,-4.9475696E-2,1.70767E-2,-1.4454938E-2,-7.2125415E-3,8.537626E-3,-3.5605922E-2,-5.212201E-3,-4.0365715E-2,-1.6520018E-2,-6.627849E-3,1.5866248E-2],"categories":[],"categories_nodes":[],"categories_segments":[],"categories_sizes":[],"default_left":[0,0,0,0,0,0,0,0,0,0,0,0,0,0,0,0,0,0,0,0,0,0,0,0,0,0,0,0,0,0,0,0,0,0,0,0,0,0,0,0,0,0,0,0,0,0,0,0,0,0,0,0,0,0,0,0,0,0,0,0,0,0,0,0,0,0,0,0,0,0,0,0,0,0,0,0,0],"id":18,"left_children":[1,3,5,7,9,11,13,15,17,19,-1,21,23,25,27,29,-1,31,33,35,37,-1,39,41,43,45,47,49,51,-1,-1,-1,-1,-1,-1,53,-1,55,57,-1,-1,-1,-1,59,61,63,65,67,69,71,73,75,-1,-1,-1,-1,-1,-1,-1,-1,-1,-1,-1,-1,-1,-1,-1,-1,-1,-1,-1,-1,-1,-1,-1,-1,-1],"loss_changes":[1.4911487E1,9.699364E-1,3.5593174E0,1.2798595E-1,8.1008244E-1,1.1095104E0,3.2745535E0,1.3044715E-1,2.894411E-1,1.2898946E-1,0E0,1.19529255E-1,3.7587976E-1,1.6794707E0,1.6029241E0,5.5305243E-2,0E0,4.2149496E-1,3.4805655E-2,6.074299E-2,1.468488E-1,0E0,2.9007562E-2,3.4800744E-1,6.338308E-1,1.6520064E0,1.09886E0,4.1243315E-1,6.011835E-1,0E0,0E0,0E0,0E0,0E0,0E0,2.173474E-3,0E0,8.6322665E-2,1.9359216E-2,0E0,0E0,0E0,0E0,3.1553757E-1,2.0200086E-1,3.7231737E-1,9.3894863E-1,4.609084E-1,4.4529572E-1,8.651329E-1,1.2543201E-3,4.73346E-1,0E0,0E0,0E0,0E0,0E0,0E0,0E0,0E0,0E0,0E0,0E0,0E0,0E0,0E0,0E0,0E0,0E0,0E0,0E0,0E0,0E0,0E0,0E0,0E0,0E0],"parents":[2147483647,0,0,1,1,2,2,3,3,4,4,5,5,6,6,7,7,8,8,9,9,11,11,12,12,13,13,14,14,15,15,17,17,18,18,19,19,20,20,22,22,23,23,24,24,25,25,26,26,27,27,28,28,35,35,37,37,38,38,43,43,44,44,45,45,46,46,47,47,48,48,49,49,50,50,51,51],"right_children":[2,4,6,8,10,12,14,16,18,20,-1,22,24,26,28,30,-1,32,34,36,38,-1,40,42,44,46,48,50,52,-1,-1,-1,-1,-1,-1,54,-1,56,58,-1,-1,-1,-1,60,62,64,66,68,70,72,74,76,-1,-1,-1,-1,-1,-1,-1,-1,-1,-1,-1,-1,-1,-1,-1,-1,-1,-1,-1,-1,-1,-1,-1,-1,-1],"split_conditions":[2.4863596E-1,2.4305236E-1,4.505451E-1,4.7000265E-1,3.212238E-1,1.8320958E-1,4.0441406E-1,4.236056E-1,4.5848626E-1,2.7075365E-1,4.490817E-2,8.540633E-2,4.1435996E-1,5.2541447E-1,5.141504E-1,3.709061E-1,1.1010057E-2,4.808432E-1,5.34785E-1,2.3041657E-1,3.1439298E-1,1.1386612E-2,1.7918189E-1,1.6428792E-1,3.731785E-1,3.4104466E-1,5.2324986E-1,2.0392713E-1,5.274878E-1,8.262538E-3,3.9701715E-2,6.321326E-2,5.817611E-3,1.5398527E-2,3.6530346E-2,6.74419E-2,1.2974106E-2,5.052575E-1,3.191436E-1,-7.038876E-3,4.0367674E-3,1.8989373E-3,-4.2200908E-2,3.328359E-1,3.7477994E-1,4.6722397E-1,5.257871E-1,5.830793E-1,5.5421686E-1,4.5960456E-1,2.2450829E-1,4.7656167E-1,-3.4458652E-2,7.595033E-4,-2.7046548E-3,2.6780618E-2,1.2903084E-2,4.2929203E-4,9.692641E-3,-1.54936155E-2,7.987486E-3,-4.909965E-3,-3.2886364E-2,1.5509742E-2,2.8044616E-3,-6.7108213E-3,-4.9475696E-2,1.70767E-2,-1.4454938E-2,-7.2125415E-3,8.537626E-3,-3.5605922E-2,-5.212201E-3,-4.0365715E-2,-1.6520018E-2,-6.627849E-3,1.5866248E-2],"split_indices":[181,165,236,351,82,73,190,231,230,142,0,0,353,332,269,231,0,431,278,178,102,0,58,12,201,183,438,14,205,0,0,0,0,0,0,0,0,258,98,0,0,0,0,187,438,389,307,238,417,206,26,137,0,0,0,0,0,0,0,0,0,0,0,0,0,0,0,0,0,0,0,0,0,0,0,0,0],"split_type":[0,0,0,0,0,0,0,0,0,0,0,0,0,0,0,0,0,0,0,0,0,0,0,0,0,0,0,0,0,0,0,0,0,0,0,0,0,0,0,0,0,0,0,0,0,0,0,0,0,0,0,0,0,0,0,0,0,0,0,0,0,0,0,0,0,0,0,0,0,0,0,0,0,0,0,0,0],"sum_hessian":[4.71E2,6.5E1,4.06E2,2.7E1,3.8E1,5.4E1,3.52E2,8E0,1.9E1,3E1,8E0,9E0,4.5E1,2.66E2,8.6E1,5E0,3E0,1.1E1,8E0,5E0,2.5E1,3E0,6E0,1.3E1,3.2E1,1.67E2,9.9E1,3.4E1,5.2E1,1E0,4E0,1E1,1E0,3E0,5E0,3E0,2E0,2E1,5E0,5E0,1E0,1E0,1.2E1,1.3E1,1.9E1,5.4E1,1.13E2,6E1,3.9E1,2.1E1,1.3E1,4.9E1,3E0,1E0,2E0,1.3E1,7E0,2E0,3E0,9E0,4E0,2E0,1.7E1,2.1E1,3.3E1,1.11E2,2E0,5.8E1,2E0,2.2E1,1.7E1,9E0,1.2E1,1.1E1,2E0,4.4E1,5E0],"tree_param":{"num_deleted":"0","num_feature":"444","num_nodes":"77","size_leaf_vector":"1"}},{"base_weights":[3.6696214E-3,4.1572803E-1,-6.3159674E-2,3.2502002E-1,5.946252E-1,-3.281882E-1,-3.4180596E-2,3.7618747E-1,1.2801561E-1,6.674037E-2,4.4674373E-1,-1.359168E-1,-4.2649138E-1,4.6395585E-2,-1.3921961E-1,1.54576E-1,4.1535723E-1,7.310221E-4,1.3886778E-1,2.8580508E-1,5.0050545E-2,-2.0949644E-1,1.1880131E-1,-3.774584E-2,-2.2553058E-1,-9.900958E-3,1.319771E-1,-4.087661E-1,-9.0983585E-2,-1.0376897E-3,1.3871297E-2,6.03954E-1,3.534797E-1,1.3060199E-2,6.4749746E-3,2.3269499E-2,1.5471049E-3,-2.2442108E-2,-3.0021834E-1,1.8277272E-3,1.0661647E-2,2.1532478E-2,-4.2748752E-1,1.6364348E-1,-6.06372E-2,5.2610528E-2,1.09255284E-1,1.1525646E-2,-4.6688238E-1,-4.806373E-2,-3.1315264E-1,1.1229473E-2,4.9864072E-2,1.2884783E-2,3.3370417E-2,7.858124E-3,-6.03301E-3,-3.0544134E-2,-1.1590896E-2,-6.9360887E-3,1.7909518E-2,-8.4729E-3,-3.5840508E-2,9.465927E-3,2.745262E-2,-7.4329893E-3,6.522615E-3,1.8212259E-2,4.610958E-3,-1.9239977E-2,-4.4458166E-2,-9.8640025E-3,3.7644017E-3,-3.6254577E-2,-1.5111017E-2],"categories":[],"categories_nodes":[],"categories_segments":[],"categories_sizes":[],"default_left":[0,0,0,0,0,0,0,0,0,0,0,0,0,0,0,0,0,0,0,0,0,0,0,0,0,0,0,0,0,0,0,0,0,0,0,0,0,0,0,0,0,0,0,0,0,0,0,0,0,0,0,0,0,0,0,0,0,0,0,0,0,0,0,0,0,0,0,0,0,0,0,0,0,0,0],"id":19,"left_children":[1,3,5,7,9,11,13,15,17,-1,19,21,23,25,27,29,31,-1,33,35,-1,37,39,-1,41,43,45,47,49,-1,-1,51,53,-1,-1,-1,-1,55,57,-1,-1,59,61,63,65,-1,67,-1,69,71,73,-1,-1,-1,-1,-1,-1,-1,-1,-1,-1,-1,-1,-1,-1,-1,-1,-1,-1,-1,-1,-1,-1,-1,-1],"loss_changes":[1.3023992E1,8.777437E-1,3.114657E0,4.155321E-1,5.1934624E-1,6.980686E-1,3.1210797E0,2.4829292E-1,1.2764648E-2,0E0,3.773117E-1,3.060195E-1,2.8770304E-1,1.0082568E0,2.043105E0,3.8367048E-2,1.3661146E-1,0E0,3.494382E-3,6.493354E-2,0E0,1.9690156E-1,5.357135E-3,0E0,4.582698E-1,1.128157E0,9.973798E-1,8.5623693E-1,1.2913073E0,0E0,0E0,6.642938E-2,3.3897424E-1,0E0,0E0,0E0,0E0,4.531981E-2,6.1799645E-2,0E0,0E0,1.4593756E-1,2.5249422E-2,1.7349827E-1,5.7076883E-1,0E0,5.019846E-1,0E0,4.305272E-1,9.578084E-1,3.2085443E-1,0E0,0E0,0E0,0E0,0E0,0E0,0E0,0E0,0E0,0E0,0E0,0E0,0E0,0E0,0E0,0E0,0E0,0E0,0E0,0E0,0E0,0E0,0E0,0E0],"parents":[2147483647,0,0,1,1,2,2,3,3,4,4,5,5,6,6,7,7,8,8,10,10,11,11,12,12,13,13,14,14,15,15,16,16,18,18,19,19,21,21,22,22,24,24,25,25,26,26,27,27,28,28,31,31,32,32,37,37,38,38,41,41,42,42,43,43,44,44,46,46,48,48,49,49,50,50],"right_children":[2,4,6,8,10,12,14,16,18,-1,20,22,24,26,28,30,32,-1,34,36,-1,38,40,-1,42,44,46,48,50,-1,-1,52,54,-1,-1,-1,-1,56,58,-1,-1,60,62,64,66,-1,68,-1,70,72,74,-1,-1,-1,-1,-1,-1,-1,-1,-1,-1,-1,-1,-1,-1,-1,-1,-1,-1,-1,-1,-1,-1,-1,-1],"split_conditions":[2.4863596E-1,5.0377625E-1,4.3377316E-1,4.5144916E-1,4.4502395E-1,1.8663996E-1,3.791816E-1,4.3650866E-1,6.74419E-2,6.674037E-2,5.41884E-1,1.9463718E-1,4.0853333E-1,2.1207927E-1,4.8021868E-1,7.524129E-2,1.6357188E-1,7.310221E-4,5.04962E-1,3.412273E-1,5.0050545E-2,1.8146496E-1,1.5911E-1,-3.774584E-2,3.700625E-1,3.1669146E-1,2.1317963E-1,3.883443E-1,4.4415E-1,-1.0376897E-3,1.3871297E-2,6.887362E-2,2.6672322E-1,1.3060199E-2,6.4749746E-3,2.3269499E-2,1.5471049E-3,8.540633E-2,1.8607976E-1,1.8277272E-3,1.0661647E-2,2.1163835E-1,1.7988661E-1,3.5222566E-1,3.8456807E-1,5.2610528E-2,3.6835814E-1,1.1525646E-2,3.9634353E-1,4.0004992E-1,2.3095228E-1,1.1229473E-2,4.9864072E-2,1.2884783E-2,3.3370417E-2,7.858124E-3,-6.03301E-3,-3.0544134E-2,-1.1590896E-2,-6.9360887E-3,1.7909518E-2,-8.4729E-3,-3.5840508E-2,9.465927E-3,2.745262E-2,-7.4329893E-3,6.522615E-3,1.8212259E-2,4.610958E-3,-1.9239977E-2,-4.4458166E-2,-9.8640025E-3,3.7644017E-3,-3.6254577E-2,-1.5111017E-2],"split_indices":[181,283,229,224,227,63,189,268,0,0,253,85,440,13,240,0,98,0,255,79,0,66,0,0,199,185,21,430,185,0,0,24,130,0,0,0,0,0,75,0,0,19,0,163,196,0,199,0,192,146,45,0,0,0,0,0,0,0,0,0,0,0,0,0,0,0,0,0,0,0,0,0,0,0,0],"split_type":[0,0,0,0,0,0,0,0,0,0,0,0,0,0,0,0,0,0,0,0,0,0,0,0,0,0,0,0,0,0,0,0,0,0,0,0,0,0,0,0,0,0,0,0,0,0,0,0,0,0,0,0,0,0,0,0,0,0,0,0,0,0,0,0,0,0,0,0,0,0,0,0,0,0,0],"sum_hessian":[4.71E2,6.5E1,4.06E2,4.5E1,2E1,3.9E1,3.67E2,3.5E1,1E1,5E0,1.5E1,1.4E1,2.5E1,2.08E2,1.59E2,6E0,2.9E1,1E0,9E0,1E1,5E0,1.1E1,3E0,1.7E1,8E0,1.26E2,8.2E1,2.3E1,1.36E2,1E0,5E0,5E0,2.4E1,4E0,5E0,9E0,1E0,4E0,7E0,1E0,2E0,4E0,4E0,2.8E1,9.8E1,2E0,8E1,2E0,2.1E1,1.15E2,2.1E1,1E0,4E0,9E0,1.5E1,1E0,3E0,3E0,4E0,3E0,1E0,1E0,3E0,2.5E1,3E0,7.8E1,2E1,2E1,6E1,9E0,1.2E1,6.2E1,5.3E1,7E0,1.4E1],"tree_param":{"num_deleted":"0","num_feature":"444","num_nodes":"75","size_leaf_vector":"1"}},{"base_weights":[3.7862523E-3,3.3796424E-1,-6.838531E-2,5.260471E-1,2.4458148E-1,-2.0562972E-1,-7.866968E-3,3.8163733E-1,6.161324E-1,1.888033E-1,5.272845E-1,-1.3907677E-1,-3.3858255E-1,1.7200893E-2,-3.07113E-1,4.7228977E-2,2.0140965E-1,5.8134567E-2,3.801207E-1,2.087306E-1,-2.9536277E-2,1.0617058E-2,4.1835368E-2,-3.7591013E-1,-7.4996084E-2,-2.6221383E-1,-5.338305E-1,-8.829313E-2,5.7681005E-2,-4.706958E-1,-1.7023928E-1,1.692981E-2,5.8142813E-3,7.0081656E-3,3.450799E-2,2.2062564E-1,-4.720192E-2,-1.0101486E-1,-4.5272294E-1,-1.35773E-1,4.9966674E-2,-3.7514544E-1,1.1639416E-3,-5.978566E-1,1.5901678E-3,2.6584426E-1,-1.44901E-1,8.969009E-3,1.6434821E-1,-7.556912E-3,-3.782573E-2,-9.190095E-2,-2.4264397E-2,1.960711E-2,1.1824449E-2,-6.7993053E-3,1.4890888E-3,-1.7841065E-2,5.214208E-3,-1.4710948E-2,-3.611564E-2,-7.687939E-3,-4.171917E-2,1.1534836E-2,-6.750784E-3,-1.1761885E-2,-3.5482783E-2,8.221254E-3,-6.7055523E-3,-6.74146E-3,-4.875879E-2,3.4288973E-2,1.2064535E-2,-3.311505E-2,-8.725384E-3,7.742237E-3,-6.7498107E-3,4.02394E-2,4.7764312E-3,-1.1067917E-2,6.539207E-3],"categories":[],"categories_nodes":[],"categories_segments":[],"categories_sizes":[],"default_left":[0,0,0,0,0,0,0,0,0,0,0,0,0,0,0,0,0,0,0,0,0,0,0,0,0,0,0,0,0,0,0,0,0,0,0,0,0,0,0,0,0,0,0,0,0,0,0,0,0,0,0,0,0,0,0,0,0,0,0,0,0,0,0,0,0,0,0,0,0,0,0,0,0,0,0,0,0,0,0,0,0],"id":20,"left_children":[1,3,5,7,9,11,13,15,17,19,21,23,25,27,29,-1,31,-1,33,35,-1,-1,-1,37,39,41,43,45,47,49,51,-1,-1,-1,-1,53,55,57,59,61,63,65,67,69,-1,71,73,75,77,-1,-1,79,-1,-1,-1,-1,-1,-1,-1,-1,-1,-1,-1,-1,-1,-1,-1,-1,-1,-1,-1,-1,-1,-1,-1,-1,-1,-1,-1,-1,-1],"loss_changes":[1.14068775E1,1.3466892E0,3.22934E0,1.1610985E-1,8.1502914E-1,1.0058708E0,2.0381777E0,4.5441532E-1,2.6822805E-1,6.627041E-1,2.6988506E-2,1.2011001E0,4.415455E-1,1.0769657E0,3.9006305E-1,0E0,9.617925E-3,0E0,1.4044833E-1,1.5958595E-1,0E0,0E0,0E0,3.1323147E-1,5.004495E-1,8.927467E-1,3.6804175E-1,1.4418087E0,9.44193E-1,6.120932E-2,1.2637392E-1,0E0,0E0,0E0,0E0,7.953477E-2,1.0541866E-2,1.3324215E-1,1.6725063E-3,5.584641E-1,3.3359098E-1,3.7491798E-1,1.0802763E-1,1.8048477E-1,0E0,1.2733495E-1,4.6546102E-1,1.1847017E0,2.101294E0,0E0,0E0,1.12568624E-1,0E0,0E0,0E0,0E0,0E0,0E0,0E0,0E0,0E0,0E0,0E0,0E0,0E0,0E0,0E0,0E0,0E0,0E0,0E0,0E0,0E0,0E0,0E0,0E0,0E0,0E0,0E0,0E0,0E0],"parents":[2147483647,0,0,1,1,2,2,3,3,4,4,5,5,6,6,7,7,8,8,9,9,10,10,11,11,12,12,13,13,14,14,16,16,18,18,19,19,23,23,24,24,25,25,26,26,27,27,28,28,29,29,30,30,35,35,36,36,37,37,38,38,39,39,40,40,41,41,42,42,43,43,45,45,46,46,47,47,48,48,51,51],"right_children":[2,4,6,8,10,12,14,16,18,20,22,24,26,28,30,-1,32,-1,34,36,-1,-1,-1,38,40,42,44,46,48,50,52,-1,-1,-1,-1,54,56,58,60,62,64,66,68,70,-1,72,74,76,78,-1,-1,80,-1,-1,-1,-1,-1,-1,-1,-1,-1,-1,-1,-1,-1,-1,-1,-1,-1,-1,-1,-1,-1,-1,-1,-1,-1,-1,-1,-1,-1],"split_conditions":[2.9585475E-1,2.3800078E-1,4.939766E-1,2.3841892E-1,1.8419258E-1,3.710963E-1,4.4415E-1,1.6357188E-1,3.4456474E-1,1.5846662E-1,4.5809776E-1,4.2122737E-1,4.9383506E-1,1.876953E-1,3.8477236E-1,4.7228977E-2,2.302808E-1,5.8134567E-2,1.1620166E-1,2.5594136E-1,-2.9536277E-2,1.0617058E-2,4.1835368E-2,1.7718334E-1,2.1446373E-1,4.8076335E-1,4.9548998E-1,4.9325466E-1,5.3510994E-1,4.496213E-1,4.8393568E-1,1.692981E-2,5.8142813E-3,7.0081656E-3,3.450799E-2,4.810404E-1,1.353269E-1,1.5583585E-1,3.8335168E-1,2.1043585E-1,4.3447945E-1,4.097611E-1,4.6423605E-1,1.621169E-1,1.5901678E-3,4.9618518E-1,2.9614395E-1,4.5365557E-1,5.346378E-1,-7.556912E-3,-3.782573E-2,2.8276834E-1,-2.4264397E-2,1.960711E-2,1.1824449E-2,-6.7993053E-3,1.4890888E-3,-1.7841065E-2,5.214208E-3,-1.4710948E-2,-3.611564E-2,-7.687939E-3,-4.171917E-2,1.1534836E-2,-6.750784E-3,-1.1761885E-2,-3.5482783E-2,8.221254E-3,-6.7055523E-3,-6.74146E-3,-4.875879E-2,3.4288973E-2,1.2064535E-2,-3.311505E-2,-8.725384E-3,7.742237E-3,-6.7498107E-3,4.02394E-2,4.7764312E-3,-1.1067917E-2,6.539207E-3],"split_indices":[184,167,270,93,9,189,185,98,212,0,235,279,324,15,127,0,202,0,0,28,0,0,0,34,78,306,277,348,233,187,150,0,0,0,0,264,0,0,282,64,211,425,396,0,0,295,151,207,371,0,0,58,0,0,0,0,0,0,0,0,0,0,0,0,0,0,0,0,0,0,0,0,0,0,0,0,0,0,0,0,0],"split_type":[0,0,0,0,0,0,0,0,0,0,0,0,0,0,0,0,0,0,0,0,0,0,0,0,0,0,0,0,0,0,0,0,0,0,0,0,0,0,0,0,0,0,0,0,0,0,0,0,0,0,0,0,0,0,0,0,0,0,0,0,0,0,0,0,0,0,0,0,0,0,0,0,0,0,0,0,0,0,0,0,0],"sum_hessian":[4.71E2,8.3E1,3.88E2,2.6E1,5.7E1,1.18E2,2.7E2,1.2E1,1.4E1,4.9E1,8E0,8E1,3.8E1,2.5E2,2E1,4E0,8E0,7E0,7E0,4.8E1,1E0,1E0,7E0,1.6E1,6.4E1,2.9E1,9E0,6.9E1,1.81E2,8E0,1.2E1,6E0,2E0,2E0,5E0,4.6E1,2E0,4E0,1.2E1,4.3E1,2.1E1,2E1,9E0,8E0,1E0,9E0,6E1,1.25E2,5.6E1,1E0,7E0,9E0,3E0,2.6E1,2E1,1E0,1E0,2E0,2E0,2E0,1E1,4.1E1,2E0,1.2E1,9E0,7E0,1.3E1,4E0,5E0,1E0,7E0,2E0,7E0,4E0,5.6E1,6.4E1,6.1E1,1.1E1,4.5E1,7E0,2E0],"tree_param":{"num_deleted":"0","num_feature":"444","num_nodes":"81","size_leaf_vector":"1"}},{"base_weights":[3.4753578E-3,3.6416152E-1,-5.502283E-2,2.6677522E-1,4.9495006E-1,-1.21648036E-1,3.7639145E-2,3.1152293E-1,7.803057E-2,6.618305E-1,3.7474146E-1,3.7889513E-3,-1.7640714E-1,2.7045703E-1,5.0112326E-3,5.292512E-1,2.5160098E-1,2.6019217E-4,8.691709E-2,9.451556E-3,5.8502275E-2,2.469003E-1,4.4195533E-2,-3.5994656E-2,4.6414204E-2,-2.555097E-1,-1.1086371E-1,9.950588E-2,4.1682118E-1,2.6300993E-2,-2.2301093E-1,1.5842585E-2,4.7658827E-2,1.8641599E-1,3.0840974E-2,6.9247945E-3,1.8383471E-3,2.6429033E-1,1.4332474E-3,-9.874255E-3,1.5697311E-1,-2.1997377E-1,-3.9088827E-2,1.6822781E-2,-1.4110461E-1,1.595663E-1,-8.538301E-3,4.5545548E-1,1.2148342E-2,-1.05152555E-1,6.9868356E-2,-2.8747892E-1,8.7708734E-2,1.7068373E-2,-3.406381E-3,8.629217E-3,2.1197367E-2,2.5549103E-3,-2.313625E-2,5.908099E-4,1.7697422E-2,-2.745725E-2,-1.1587985E-2,-6.0933703E-3,-2.3974897E-2,1.300854E-2,1.8194686E-3,1.3314091E-2,3.8212884E-2,2.482925E-2,-1.1729453E-2,-2.760744E-3,1.0408821E-2,-3.2570668E-2,-1.0616683E-2,-9.773243E-4,1.0844557E-2],"categories":[],"categories_nodes":[],"categories_segments":[],